--Deobfuscated by Nyzlinh

local L_3_ = {}
L_3_[168] = table["concat"]
do
	local L_85_ = {}
	L_85_[12] = true
	L_85_[1] = string["gmatch"]
	L_85_[4] = function()
		error("You Are Lost!")
	end
	L_85_[3] = false
	L_85_[15] = pcall(function()
		L_85_[3] = true
	end) and L_85_[3]
	L_85_[13] = math["random"]
	L_85_[6] = table["concat"]
	L_85_[9] = table and table["unpack"] or unpack
	L_85_[8] = L_85_[13](3, 65)
	L_85_[7] = 0
	L_85_[14] = 0
	L_85_[2] = {
		pcall(function()
			local L_86_ = {}
			L_86_[2] = 11805745 - "5oP3v0lnSgxL" ^ 4310596
			return "EwtXPrd2crFOS2" / L_86_[2]
		end)
	}
	L_85_[10] = L_85_[2][2]
	L_85_[5] = tonumber((L_85_[1](tostring(L_85_[10]), ":(%d*):"))())
	for L_87_forvar0 = 1, L_85_[8], 1 do
		local L_88_ = {}
		L_88_[5] = L_87_forvar0
		L_88_[2] = math["random"](1, 100)
		L_88_[1] = L_85_[13](0, 255)
		L_88_[3] = L_85_[13](1, L_88_[2])
		L_88_[8] = L_85_[13](1, 2) == 1
		L_88_[4] = L_85_[10]:gsub(":(%d*):", ":" .. (tostring(L_85_[13](0, 10000)) .. ":"))
		L_88_[7] = {
			pcall(function()
				local L_89_ = {}
				if L_85_[13](1, 2) == 1 or L_88_[5] == L_85_[8] then
					local L_90_ = {}
					L_90_[1] = tonumber((L_85_[1](tostring(({
						pcall(function()
							local L_91_ = {}
							L_91_[1] = 1898093 - "AwWp5N" ^ 2461985
							return "dXWU" / L_91_[1]
						end)
					})[2]), ":(%d*):"))())
					L_85_[12] = L_85_[12] and L_85_[5] == L_90_[1]
				end
				if L_88_[8] then
					error(L_88_[4], 0)
				end
				L_89_[2] = {}
				for L_92_forvar0 = 1, L_88_[2], 1 do
					local L_93_ = {}
					L_93_[2] = L_92_forvar0
					L_89_[2][L_93_[2]] = L_85_[13](0, 255)
				end
				L_89_[2][L_88_[3]] = L_88_[1]
				return L_85_[9](L_89_[2])
			end)
		}
		if L_88_[8] then
			L_85_[12] = L_85_[12] and (L_88_[7][1] == false and L_88_[7][2] == L_88_[4])
		else
			L_85_[12] = L_85_[12] and L_88_[7][1]
			L_85_[7] = (L_85_[7] + L_88_[7][L_88_[3] + 1]) % 256
			L_85_[14] = (L_85_[14] + L_88_[1]) % 256
		end
	end
	L_85_[12] = L_85_[12] and L_85_[7] == L_85_[14]
	if L_85_[12] then
	else
		repeat
			return (function()
				while true do
					l1, l2 = l2, l1
					L_85_[4]()
				end
			end)()
		until true
		while true do
			l2 = L_85_[13](1, 6)
			if l2 > 2 then
				l2 = tostring(l1)
			else
				l1 = l2
			end
		end
		return
	end
end
do
	local L_94_ = {}
	L_94_[31] = true
	L_94_[43] = function()
		originalError({
			["msg"] = L_3_[168]({
				"Tampering detected. ",
				"Please contact the o",
				"wner of this script ";
				"for a new version."
			})
		})
		while true do
		end
	end
	L_94_[36] = function()
		originalError(L_3_[168]({
			"Tampering detected. ",
			"Error code: "
		}) .. math["random"](1000, 9999))
		while true do
		end
	end
	L_94_[17] = function()
		originalError(function()
			return L_3_[168]({
				"Tampering detected. ";
				"This incident will b";
				"e reported."
			})
		end)
		while true do
		end
	end
	L_94_[23] = {
		L_94_[43],
		L_94_[36],
		L_94_[17]
	}
	L_94_[26] = L_94_[23][math["random"](1, #L_94_[23])]
	L_94_[5] = error
	L_94_[19] = pairs
	L_94_[22] = setmetatable
	L_94_[11] = getmetatable
	L_94_[33] = type
	L_94_[42] = load
	L_94_[39] = loadstring
	L_94_[12] = pcall
	L_94_[3] = math["random"]
	L_94_[28] = xpcall
	L_94_[40] = debug
	L_94_[32] = debug["getinfo"]
	L_94_[4] = package
	L_94_[27] = coroutine
	L_94_[44] = string
	L_94_[46] = math
	L_94_[24] = table
	L_94_[30] = os
	L_94_[25] = io
	L_94_[9] = file
	L_94_[16] = {}
	L_94_[34] = {}
	for L_95_forvar0, L_96_forvar1 in L_94_[19](_G) do
		local L_97_ = {}
		L_97_[2], L_97_[1] = L_95_forvar0, L_96_forvar1
		L_94_[34][L_97_[2]] = L_97_[1]
	end
	L_94_[41] = function(L_98_arg0)
		local L_99_ = {}
		L_99_[3] = L_98_arg0
		L_99_[2] = {
			["__index"] = L_99_[3];
			["__newindex"] = function(L_100_arg0, L_101_arg1, L_102_arg2)
				local L_103_ = {}
				L_103_[2], L_103_[4], L_103_[3] = L_100_arg0, L_101_arg1, L_102_arg2
				if L_94_[34][L_103_[4]] then
					L_94_[26]()
				else
					L_94_[34][L_103_[4]] = L_103_[3]
				end
			end;
			["__metatable"] = false,
			["__gc"] = function()
				L_94_[26]()
			end,
			["__mode"] = "k";
			["__call"] = function()
				L_94_[26]()
			end;
			["__len"] = function()
				L_94_[26]()
			end,
			["__pairs"] = function()
				L_94_[26]()
			end,
			["__ipairs"] = function()
				L_94_[26]()
			end,
			["__debug"] = function()
				L_94_[26]()
			end;
			["__tostring"] = function()
				L_94_[26]()
			end,
			["__concat"] = function()
				L_94_[26]()
			end,
			["__unm"] = function()
				L_94_[26]()
			end;
			["__add"] = function()
				L_94_[26]()
			end,
			["__sub"] = function()
				L_94_[26]()
			end;
			["__mul"] = function()
				L_94_[26]()
			end;
			["__div"] = function()
				L_94_[26]()
			end;
			["__mod"] = function()
				L_94_[26]()
			end;
			["__pow"] = function()
				L_94_[26]()
			end;
			["__eq"] = function()
				L_94_[26]()
			end;
			["__lt"] = function()
				L_94_[26]()
			end;
			["__le"] = function()
				L_94_[26]()
			end
		}
		return L_94_[22]({}, L_99_[2])
	end
	L_94_[16]["protectGlobals"] = function()
		for L_104_forvar0, L_105_forvar1 in L_94_[19](_G) do
			local L_106_ = {}
			L_106_[1], L_106_[3] = L_104_forvar0, L_105_forvar1
			if L_94_[33](L_106_[3]) == "function" then
				L_94_[34][L_106_[1]] = L_106_[3]
			end
		end
		_G = L_94_[41](L_94_[34])
		L_94_[22](_G, {
			["__metatable"] = L_3_[168]({
				"This metatable is lo",
				"cked."
			})
		})
	end
	L_94_[16]["protectTable"] = function(L_107_arg0)
		local L_108_ = {}
		L_108_[1] = L_107_arg0
		return L_94_[41](L_108_[1])
	end
	L_94_[16]["protectFunction"] = function(L_109_arg0)
		local L_110_ = {}
		L_110_[2] = L_109_arg0
		L_110_[1] = function(...)
			return L_110_[2](...)
		end
		return L_94_[22]({}, {
			["__index"] = function(L_111_arg0, L_112_arg1)
				local L_113_ = {}
				L_113_[3], L_113_[2] = L_111_arg0, L_112_arg1
				if L_113_[2] == "__call" then
					return L_110_[1]
				else
					L_94_[26]()
				end
			end;
			["__newindex"] = function(L_114_arg0, L_115_arg1, L_116_arg2)
				L_94_[26]()
			end,
			["__metatable"] = false;
			["__gc"] = function()
				L_94_[26]()
			end;
			["__mode"] = "k";
			["__call"] = function()
				L_94_[26]()
			end,
			["__len"] = function()
				L_94_[26]()
			end;
			["__pairs"] = function()
				L_94_[26]()
			end,
			["__ipairs"] = function()
				L_94_[26]()
			end;
			["__debug"] = function()
				L_94_[26]()
			end
		})
	end
	if error ~= L_94_[5] or pairs ~= L_94_[19] or setmetatable ~= L_94_[22] or getmetatable ~= L_94_[11] or type ~= L_94_[33] or load ~= L_94_[42] or loadstring ~= L_94_[39] or pcall ~= L_94_[12] or xpcall ~= L_94_[28] or debug ~= L_94_[40] or package ~= L_94_[4] or coroutine ~= L_94_[27] or string ~= L_94_[44] or math ~= L_94_[46] or table ~= L_94_[24] then
		L_94_[26]()
	end
	if pcall ~= L_94_[12] or math["random"] ~= L_94_[3] then
		L_94_[26]()
	end
	L_94_[38] = {
		"os";
		"io",
		"file";
		"debug"
	}
	for L_117_forvar0, L_118_forvar1 in ipairs(L_94_[38]) do
		local L_119_ = {}
		L_119_[3], L_119_[2] = L_117_forvar0, L_118_forvar1
		if _G[L_119_[2]] ~= L_94_[34][L_119_[2]] then
			L_94_[26]()
		end
	end
	L_94_[18], L_94_[2] = pcall(L_94_[40]["gethook"])
	if L_94_[18] then
		if L_94_[2] then
			L_94_[26]()
		end
	end
	L_94_[45] = string["gmatch"]
	L_94_[13], L_94_[15] = pcall(main)
	for L_120_forvar0, L_121_forvar1 in ipairs(L_94_[38]) do
		local L_122_ = {}
		L_122_[3], L_122_[2] = L_120_forvar0, L_121_forvar1
		if getmetatable(_G[L_122_[2]]) ~= getmetatable(L_94_[34][L_122_[2]]) then
			L_94_[26]()
		end
	end
	L_94_[7] = false
	L_94_[10] = L_94_[12](function()
		L_94_[7] = true
	end) and L_94_[7]
	L_94_[14] = math["random"]
	L_94_[8] = table["concat"]
	L_94_[1] = table and table["unpack"] or unpack
	n = L_94_[3](3, 65)
	if n < 3 or n > 65 then
		local L_123_ = {}
		L_123_[2] = L_94_[14](1, 16777216) - RandomStrings["randomString"]() ^ L_94_[14](1, 16777216)
		return RandomStrings["randomString"]() / L_123_[2]
	end
	L_94_[29] = 0
	L_94_[20] = 0
	L_94_[21] = {
		pcall(function()
			local L_124_ = {}
			L_124_[1] = L_94_[14](1, 16777216) - RandomStrings["randomString"]() ^ L_94_[14](1, 16777216)
			return RandomStrings["randomString"]() / L_124_[1]
		end)
	}
	L_94_[37] = L_94_[21][2]
	L_94_[35] = tonumber((L_94_[45](tostring(L_94_[37]), ":(%d*):"))())
	for L_125_forvar0 = 1, 100, 1 do
		local L_126_ = {}
		L_126_[2] = L_125_forvar0
		L_126_[3] = 100
		L_126_[7] = L_126_[2] % 256
		L_126_[8] = L_126_[2] % L_126_[3] + 1
		L_126_[5] = L_126_[2] % 2 == 0
		L_126_[4] = L_94_[37]:gsub(":(%d*):", ":" .. (tostring(L_94_[14](0, 10000)) .. ":"))
		L_126_[1] = {
			pcall(function()
				local L_127_ = {}
				if L_94_[14](1, 2) == 1 or L_126_[2] == n then
					local L_128_ = {}
					L_128_[1] = tonumber((L_94_[45](tostring(({
						pcall(function()
							local L_129_ = {}
							L_129_[2] = L_94_[14](1, 16777216) - RandomStrings["randomString"]() ^ L_94_[14](1, 16777216)
							return RandomStrings["randomString"]() / L_129_[2]
						end)
					})[2]), ":(%d*):"))())
					L_94_[31] = L_94_[31] and L_94_[35] == L_128_[1]
				end
				if L_126_[5] then
					error(L_126_[4], 0)
				end
				L_127_[2] = {}
				for L_130_forvar0 = 1, L_126_[3], 1 do
					local L_131_ = {}
					L_131_[2] = L_130_forvar0
					L_127_[2][L_131_[2]] = L_94_[14](0, 255)
				end
				L_127_[2][L_126_[8]] = L_126_[7]
				return L_94_[1](L_127_[2])
			end)
		}
		if L_126_[5] then
			L_94_[31] = L_94_[31] and (L_126_[1][1] == false and L_126_[1][2] == L_126_[4])
		else
			L_94_[31] = L_94_[31] and L_126_[1][1]
			L_94_[29] = (L_94_[29] + L_126_[1][L_126_[8] + 1]) % 256
			L_94_[20] = (L_94_[20] + L_126_[7]) % 256
		end
	end
	L_94_[31] = L_94_[31] and L_94_[29] == L_94_[20]
	if L_94_[31] then
	else
		repeat
			return (function()
				L_94_[26]()
			end)()
		until true
		return
	end
end
hookfunction(require((game:GetService("ReplicatedStorage"))["Effect"]["Container"]["Death"]), function()
end)
hookfunction(require((game:GetService("ReplicatedStorage"))["Effect"]["Container"]["Respawn"]), function()
end)
L_3_[67] = game["PlaceId"]
L_3_[81] = L_3_[67] == 2753915549 or L_3_[67] == 85211729168715
L_3_[111] = L_3_[67] == 4442272183 or L_3_[67] == 79091703265657
L_3_[177] = L_3_[67] == 7449423635 or L_3_[67] == 1.0011733112309e+14
L_3_[33] = L_3_[67] == 73902483975735
function MaterialMon()
	if _G["SelectMaterial"] ~= "Radiactive Material" then
		if _G["SelectMaterial"] ~= L_3_[168]({
			"Leather + Scrap Meta";
			"l"
		}) then
			if _G["SelectMaterial"] ~= "Magma Ore" then
				if _G["SelectMaterial"] ~= "Fish Tail" then
					if _G["SelectMaterial"] == "Angel Wings" then
						MMon = "Royal Soldier"
						MPos = CFrame["new"](-7759.45898, 5606.93652, -1862.70276, -0.866007447, 0, -0.500031412, 0, 1, 0, .500031412, 0, -0.866007447)
						SP = "SkyArea2"
					elseif _G["SelectMaterial"] == "Mystic Droplet" then
						MMon = "Water Fighter"
						MPos = CFrame["new"](-3331.70459, 239.138336, -10553.3564, -0.29242146, 0, .95628953, 0, 1, 0, -0.95628953, 0, -0.29242146)
						SP = "ForgottenIsland"
					elseif _G["SelectMaterial"] == "Vampire Fang" then
						MMon = "Vampire"
						MPos = CFrame["new"](-6132.39453, 9.00769424, -1466.16919, -0.927179813, 0, -0.374617696, 0, 1, 0, .374617696, 0, -0.927179813)
						SP = "Graveyard"
					elseif _G["SelectMaterial"] == "Gunpowder" then
						MMon = "Pistol Billionaire"
						MPos = CFrame["new"](-185.693283, 84.7088699, 6103.62744, .90629667, 0, -0.422642082, 0, 1, 0, .422642082, 0, .90629667)
						SP = "Mansion"
					elseif _G["SelectMaterial"] ~= "Mini Tusk" then
						if _G["SelectMaterial"] == "Conjured Cocoa" then
							MMon = L_3_[168]({
								"Chocolate Bar Battle";
								"r"
							})
							MPos = CFrame["new"](582.828674, 25.5824986, -12550.7041, -0.766061664, 0, -0.642767608, 0, 1, 0, .642767608, 0, -0.766061664)
							SP = "Chocolate"
						end
					else
						MMon = "Mythological Pirate"
						MPos = CFrame["new"](-13456.0498, 469.433228, -7039.96436, 0, 0, 1, 0, 1, 0, -1, 0, 0)
						SP = "BigMansion"
					end
				elseif game["PlaceId"] == 85211729168715 then
					MMon = "Fishman Warrior"
					MPos = CFrame["new"](60943.9023, 17.9492188, 1744.11133, .826706648, 0, -0.562633216, 0, 1, 0, .562633216, 0, .826706648)
					SP = "Underwater City"
					MMon = "Fishman Commando"
					MPos = CFrame["new"](61760.8984, 18.0800781, 1460.11133, -0.632549644, 0, -0.774520278, 0, 1, 0, .774520278, 0, -0.632549644)
					SP = "Underwater City"
				elseif game["PlaceId"] == 1.0011733112309e+14 then
					MMon = "Fishman Captain"
					MPos = CFrame["new"](-10828.1064, 331.825989, -9049.14648, -0.0912091732, 0, .995831788, 0, 1, 0, -0.995831788, 0, -0.0912091732)
					SP = "PineappleTown"
				end
			elseif game["PlaceId"] == 85211729168715 then
				MMon = "Military Soldier"
				MPos = CFrame["new"](-5565.60156, 9.10001755, 8327.56934, -0.838688731, 0, -0.544611216, 0, 1, 0, .544611216, 0, -0.838688731)
				SP = "Magma"
				MMon = "Military Spy"
				MPos = CFrame["new"](-5806.70068, 78.5000458, 8904.46973, .707134247, 0, .707079291, 0, 1, 0, -0.707079291, 0, .707134247)
				SP = "Magma"
			elseif game["PlaceId"] == 79091703265657 then
				MMon = "Lava Pirate"
				MPos = CFrame["new"](-5158.77051, 14.4791956, -4654.2627, -0.848060489, 0, -0.529899538, 0, 1, 0, .529899538, 0, -0.848060489)
				SP = "CircleIslandFire"
			end
		elseif game["PlaceId"] == 85211729168715 then
			MMon = "Pirate"
			MPos = CFrame["new"](-967.433105, 13.5999937, 4034.24707, -0.258864403, 0, -0.965913713, 0, 1, 0, .965913713, 0, -0.258864403)
			SP = "Pirate"
			MMon = "Brute"
			MPos = CFrame["new"](-1191.41235, 15.5999985, 4235.50928, .629286051, 0, -0.777173758, 0, 1, 0, .777173758, 0, .629286051)
			SP = "Pirate"
		elseif game["PlaceId"] ~= 79091703265657 then
			if game["PlaceId"] == 1.0011733112309e+14 then
				MMon = "Pirate Millionaire"
				MPos = CFrame["new"](-118.809372, 55.4874573, 5649.17041, -0.965929747, 0, .258804798, 0, 1, 0, -0.258804798, 0, -0.965929747)
				SP = "Default"
			end
		else
			MMon = "Mercenary"
			MPos = CFrame["new"](-986.774475, 72.8755951, 1088.44653, -0.656062722, 0, .754706323, 0, 1, 0, -0.754706323, 0, -0.656062722)
			SP = "DressTown"
		end
	else
		MMon = "Factory Staff"
		MPos = CFrame["new"](-105.889565, 72.8076935, -670.247986, -0.965929747, 0, -0.258804798, 0, 1, 0, .258804798, 0, -0.965929747)
		SP = "Bar"
	end
end
function CheckQuest()
	MyLevel = (game:GetService("Players"))["LocalPlayer"]["Data"]["Level"]["Value"]
	if L_3_[81] then
		if MyLevel >= 1 and MyLevel <= 9 or SelectMonster == "Bandit" then
			Mon = "Bandit"
			LevelQuest = 1
			NameQuest = "BanditQuest1"
			NameMon = "Bandit"
			CFrameQuest = CFrame["new"](1059.37195, 15.4495068, 1550.4231, .939700544, 0, -0.341998369, 0, 1, 0, .341998369, 0, .939700544)
			CFrameMon = CFrame["new"](1045.9626464844, 27.002508163452, 1560.8203125)
		elseif (MyLevel < 10 or MyLevel > 14) and SelectMonster ~= "Monkey" then
			if (MyLevel < 15 or MyLevel > 29) and SelectMonster ~= "Gorilla" then
				if (MyLevel < 30 or MyLevel > 39) and SelectMonster ~= "Pirate" then
					if (MyLevel < 40 or MyLevel > 59) and SelectMonster ~= "Brute" then
						if MyLevel >= 60 and MyLevel <= 74 or SelectMonster == "Desert Bandit" then
							Mon = "Desert Bandit"
							LevelQuest = 1
							NameQuest = "DesertQuest"
							NameMon = "Desert Bandit"
							CFrameQuest = CFrame["new"](894.488647, 5.14000702, 4392.43359, .819155693, 0, -0.573571265, 0, 1, 0, .573571265, 0, .819155693)
							CFrameMon = CFrame["new"](924.7998046875, 6.4486746788025, 4481.5859375)
						elseif (MyLevel < 75 or MyLevel > 89) and SelectMonster ~= "Desert Officer" then
							if (MyLevel < 90 or MyLevel > 99) and SelectMonster ~= "Snow Bandit" then
								if MyLevel >= 100 and MyLevel <= 119 or SelectMonster == "Snowman" then
									Mon = "Snowman"
									LevelQuest = 2
									NameQuest = "SnowQuest"
									NameMon = "Snowman"
									CFrameQuest = CFrame["new"](1389.74451, 88.1519318, -1298.90796, -0.342042685, 0, .939684391, 0, 1, 0, -0.939684391, 0, -0.342042685)
									CFrameMon = CFrame["new"](1201.6412353516, 144.57958984375, -1550.0670166016)
								elseif (MyLevel < 120 or MyLevel > 149) and SelectMonster ~= "Chief Petty Officer" then
									if (MyLevel < 150 or MyLevel > 174) and SelectMonster ~= "Sky Bandit" then
										if (MyLevel < 175 or MyLevel > 189) and SelectMonster ~= "Dark Master" then
											if MyLevel >= 190 and MyLevel <= 209 or SelectMonster == "Prisoner" then
												Mon = "Prisoner"
												LevelQuest = 1
												NameQuest = "PrisonerQuest"
												NameMon = "Prisoner"
												CFrameQuest = CFrame["new"](5308.93115, 1.65517521, 475.120514, -0.0894274712, -5.00292918e-09, -0.995993316, 1.60817859e-09, 1, -5.16744869e-09, .995993316, -2.06384709e-09, -0.0894274712)
												CFrameMon = CFrame["new"](5098.9736328125, -0.3204058110714, 474.23733520508)
											elseif (MyLevel < 210 or MyLevel > 249) and SelectMonster ~= "Dangerous Prisone" then
												if MyLevel >= 250 and MyLevel <= 274 or SelectMonster == "Toga Warrior" then
													Mon = "Toga Warrior"
													LevelQuest = 1
													NameQuest = "ColosseumQuest"
													NameMon = "Toga Warrior"
													CFrameQuest = CFrame["new"](-1580.04663, 6.35000277, -2986.47534, -0.515037298, 0, -0.857167721, 0, 1, 0, .857167721, 0, -0.515037298)
													CFrameMon = CFrame["new"](-1820.21484375, 51.683856964111, -2740.6650390625)
												elseif (MyLevel < 275 or MyLevel > 299) and SelectMonster ~= "Gladiator" then
													if (MyLevel < 300 or MyLevel > 324) and SelectMonster ~= "Military Soldier" then
														if (MyLevel < 325 or MyLevel > 374) and SelectMonster ~= "Military Spy" then
															if (MyLevel < 375 or MyLevel > 399) and SelectMonster ~= "Fishman Warrior" then
																if (MyLevel < 400 or MyLevel > 449) and SelectMonster ~= "Fishman Commando" then
																	if MyLevel >= 450 and MyLevel <= 474 or SelectMonster == "God's Guard" then
																		Mon = "God's Guard"
																		LevelQuest = 1
																		NameQuest = "SkyExp1Quest"
																		NameMon = "God's Guard"
																		CFrameQuest = CFrame["new"](-4721.88867, 843.874695, -1949.96643, .996191859, 0, -0.0871884301, 0, 1, 0, .0871884301, 0, .996191859)
																		CFrameMon = CFrame["new"](-4710.04296875, 845.27697753906, -1927.3079833984)
																		if _G["AutoFarm"] and (CFrameQuest["Position"] - game["Players"]["LocalPlayer"]["Character"]["HumanoidRootPart"]["Position"])["Magnitude"] > 10000 then
																			(game:GetService("ReplicatedStorage"))["Remotes"]["CommF_"]:InvokeServer("requestEntrance", Vector3["new"](-4607.82275, 872.54248, -1667.55688))
																		end
																	elseif MyLevel >= 475 and MyLevel <= 524 or SelectMonster == "Shanda" then
																		Mon = "Shanda"
																		LevelQuest = 2
																		NameQuest = "SkyExp1Quest"
																		NameMon = "Shanda"
																		CFrameQuest = CFrame["new"](-7859.09814, 5544.19043, -381.476196, -0.422592998, 0, .906319618, 0, 1, 0, -0.906319618, 0, -0.422592998)
																		CFrameMon = CFrame["new"](-7678.4897460938, 5566.4038085938, -497.21560668945)
																		if _G["AutoFarm"] and (CFrameQuest["Position"] - game["Players"]["LocalPlayer"]["Character"]["HumanoidRootPart"]["Position"])["Magnitude"] > 10000 then
																			(game:GetService("ReplicatedStorage"))["Remotes"]["CommF_"]:InvokeServer("requestEntrance", Vector3["new"](-7894.6176757813, 5547.1416015625, -380.29119873047))
																		end
																	elseif MyLevel >= 525 and MyLevel <= 549 or SelectMonster == "Royal Squad" then
																		Mon = "Royal Squad"
																		LevelQuest = 1
																		NameQuest = "SkyExp2Quest"
																		NameMon = "Royal Squad"
																		CFrameQuest = CFrame["new"](-7906.81592, 5634.6626, -1411.99194, 0, 0, -1, 0, 1, 0, 1, 0, 0)
																		CFrameMon = CFrame["new"](-7624.2524414062, 5658.1333007812, -1467.3542480469)
																	elseif (MyLevel < 550 or MyLevel > 624) and SelectMonster ~= "Royal Soldier" then
																		if MyLevel >= 625 and MyLevel <= 649 or SelectMonster == "Galley Pirate" then
																			Mon = "Galley Pirate"
																			LevelQuest = 1
																			NameQuest = "FountainQuest"
																			NameMon = "Galley Pirate"
																			CFrameQuest = CFrame["new"](5259.81982, 37.3500175, 4050.0293, .087131381, 0, .996196866, 0, 1, 0, -0.996196866, 0, .087131381)
																			CFrameMon = CFrame["new"](5551.0219726562, 78.901351928711, 3930.4128417969)
																		elseif MyLevel >= 650 or SelectMonster == "Galley Captain" then
																			Mon = "Galley Captain"
																			LevelQuest = 2
																			NameQuest = "FountainQuest"
																			NameMon = "Galley Captain"
																			CFrameQuest = CFrame["new"](5259.81982, 37.3500175, 4050.0293, .087131381, 0, .996196866, 0, 1, 0, -0.996196866, 0, .087131381)
																			CFrameMon = CFrame["new"](5441.9516601562, 42.502059936523, 4950.09375)
																		end
																	else
																		Mon = "Royal Soldier"
																		LevelQuest = 2
																		NameQuest = "SkyExp2Quest"
																		NameMon = "Royal Soldier"
																		CFrameQuest = CFrame["new"](-7906.81592, 5634.6626, -1411.99194, 0, 0, -1, 0, 1, 0, 1, 0, 0)
																		CFrameMon = CFrame["new"](-7836.7534179688, 5645.6640625, -1790.6236572266)
																	end
																else
																	Mon = "Fishman Commando"
																	LevelQuest = 2
																	NameQuest = "FishmanQuest"
																	NameMon = "Fishman Commando"
																	CFrameQuest = CFrame["new"](61122.65234375, 18.497442245483, 1569.3997802734)
																	CFrameMon = CFrame["new"](61922.6328125, 18.482830047607, 1493.9343261719)
																	if _G["AutoFarm"] and (CFrameQuest["Position"] - game["Players"]["LocalPlayer"]["Character"]["HumanoidRootPart"]["Position"])["Magnitude"] > 10000 then
																		(game:GetService("ReplicatedStorage"))["Remotes"]["CommF_"]:InvokeServer("requestEntrance", Vector3["new"](61163.8515625, 11.6796875, 1819.7841796875))
																	end
																end
															else
																Mon = "Fishman Warrior"
																LevelQuest = 1
																NameQuest = "FishmanQuest"
																NameMon = "Fishman Warrior"
																CFrameQuest = CFrame["new"](61122.65234375, 18.497442245483, 1569.3997802734)
																CFrameMon = CFrame["new"](60878.30078125, 18.482830047607, 1543.7574462891)
																if _G["AutoFarm"] and (CFrameQuest["Position"] - game["Players"]["LocalPlayer"]["Character"]["HumanoidRootPart"]["Position"])["Magnitude"] > 10000 then
																	(game:GetService("ReplicatedStorage"))["Remotes"]["CommF_"]:InvokeServer("requestEntrance", Vector3["new"](61163.8515625, 11.6796875, 1819.7841796875))
																end
															end
														else
															Mon = "Military Spy"
															LevelQuest = 2
															NameQuest = "MagmaQuest"
															NameMon = "Military Spy"
															CFrameQuest = CFrame["new"](-5313.37012, 10.9500084, 8515.29395, -0.499959469, 0, .866048813, 0, 1, 0, -0.866048813, 0, -0.499959469)
															CFrameMon = CFrame["new"](-5802.8681640625, 86.262413024902, 8828.859375)
														end
													else
														Mon = "Military Soldier"
														LevelQuest = 1
														NameQuest = "MagmaQuest"
														NameMon = "Military Soldier"
														CFrameQuest = CFrame["new"](-5313.37012, 10.9500084, 8515.29395, -0.499959469, 0, .866048813, 0, 1, 0, -0.866048813, 0, -0.499959469)
														CFrameMon = CFrame["new"](-5411.1645507812, 11.081554412842, 8454.29296875)
													end
												else
													Mon = "Gladiator"
													LevelQuest = 2
													NameQuest = "ColosseumQuest"
													NameMon = "Gladiator"
													CFrameQuest = CFrame["new"](-1580.04663, 6.35000277, -2986.47534, -0.515037298, 0, -0.857167721, 0, 1, 0, .857167721, 0, -0.515037298)
													CFrameMon = CFrame["new"](-1292.8381347656, 56.380882263184, -3339.0314941406)
												end
											else
												Mon = "Dangerous Prisoner"
												LevelQuest = 2
												NameQuest = "PrisonerQuest"
												NameMon = "Dangerous Prisoner"
												CFrameQuest = CFrame["new"](5308.93115, 1.65517521, 475.120514, -0.0894274712, -5.00292918e-09, -0.995993316, 1.60817859e-09, 1, -5.16744869e-09, .995993316, -2.06384709e-09, -0.0894274712)
												CFrameMon = CFrame["new"](5654.5634765625, 15.633401870728, 866.29919433594)
											end
										else
											Mon = "Dark Master"
											LevelQuest = 2
											NameQuest = "SkyQuest"
											NameMon = "Dark Master"
											CFrameQuest = CFrame["new"](-4839.53027, 716.368591, -2619.44165, .866007268, 0, .500031412, 0, 1, 0, -0.500031412, 0, .866007268)
											CFrameMon = CFrame["new"](-5259.8447265625, 391.39767456055, -2229.0354003906)
										end
									else
										Mon = "Sky Bandit"
										LevelQuest = 1
										NameQuest = "SkyQuest"
										NameMon = "Sky Bandit"
										CFrameQuest = CFrame["new"](-4839.53027, 716.368591, -2619.44165, .866007268, 0, .500031412, 0, 1, 0, -0.500031412, 0, .866007268)
										CFrameMon = CFrame["new"](-4953.20703125, 295.74420166016, -2899.2290039062)
									end
								else
									Mon = "Chief Petty Officer"
									LevelQuest = 1
									NameQuest = "MarineQuest2"
									NameMon = "Chief Petty Officer"
									CFrameQuest = CFrame["new"](-5039.58643, 27.3500385, 4324.68018, 0, 0, -1, 0, 1, 0, 1, 0, 0)
									CFrameMon = CFrame["new"](-4881.2309570312, 22.652044296265, 4273.7524414062)
								end
							else
								Mon = "Snow Bandit"
								LevelQuest = 1
								NameQuest = "SnowQuest"
								NameMon = "Snow Bandit"
								CFrameQuest = CFrame["new"](1389.74451, 88.1519318, -1298.90796, -0.342042685, 0, .939684391, 0, 1, 0, -0.939684391, 0, -0.342042685)
								CFrameMon = CFrame["new"](1354.3479003906, 87.272773742676, -1393.9465332031)
							end
						else
							Mon = "Desert Officer"
							LevelQuest = 2
							NameQuest = "DesertQuest"
							NameMon = "Desert Officer"
							CFrameQuest = CFrame["new"](894.488647, 5.14000702, 4392.43359, .819155693, 0, -0.573571265, 0, 1, 0, .573571265, 0, .819155693)
							CFrameMon = CFrame["new"](1608.2822265625, 8.6142244338989, 4371.0073242188)
						end
					else
						Mon = "Brute"
						LevelQuest = 2
						NameQuest = "BuggyQuest1"
						NameMon = "Brute"
						CFrameQuest = CFrame["new"](-1141.07483, 4.10001802, 3831.5498, .965929627, 0, -0.258804798, 0, 1, 0, .258804798, 0, .965929627)
						CFrameMon = CFrame["new"](-1140.0837402344, 14.809885025024, 4322.9213867188)
					end
				else
					Mon = "Pirate"
					LevelQuest = 1
					NameQuest = "BuggyQuest1"
					NameMon = "Pirate"
					CFrameQuest = CFrame["new"](-1141.07483, 4.10001802, 3831.5498, .965929627, 0, -0.258804798, 0, 1, 0, .258804798, 0, .965929627)
					CFrameMon = CFrame["new"](-1103.5134277344, 13.752052307129, 3896.0910644531)
				end
			else
				Mon = "Gorilla"
				LevelQuest = 2
				NameQuest = "JungleQuest"
				NameMon = "Gorilla"
				CFrameQuest = CFrame["new"](-1598.08911, 35.5501175, 153.377838, 0, 0, 1, 0, 1, 0, -1, 0, 0)
				CFrameMon = CFrame["new"](-1129.8836669922, 40.46354675293, -525.42370605469)
			end
		else
			Mon = "Monkey"
			LevelQuest = 1
			NameQuest = "JungleQuest"
			NameMon = "Monkey"
			CFrameQuest = CFrame["new"](-1598.08911, 35.5501175, 153.377838, 0, 0, 1, 0, 1, 0, -1, 0, 0)
			CFrameMon = CFrame["new"](-1448.5180664062, 67.853012084961, 11.465796470642)
		end
	elseif not L_3_[111] then
		if L_3_[177] then
			if MyLevel >= 1500 and MyLevel <= 1524 or SelectMonster == "Pirate Millionaire" then
				Mon = "Pirate Millionaire"
				LevelQuest = 1
				NameQuest = "PiratePortQuest"
				NameMon = "Pirate Millionaire"
				CFrameQuest = CFrame["new"](-450.104645, 107.681458, 5950.72607, .957107544, 0, -0.289732844, 0, 1, 0, .289732844, 0, .957107544)
				CFrameMon = CFrame["new"](-245.99638366699, 47.30615234375, 5584.1005859375)
			elseif (MyLevel < 1525 or MyLevel > 1574) and SelectMonster ~= "Pistol Billionaire" then
				if MyLevel >= 1575 and MyLevel <= 1599 or SelectMonster == "Dragon Crew Warrior" then
					Mon = "Dragon Crew Warrior"
					LevelQuest = 1
					NameQuest = "DragonCrewQuest"
					NameMon = "Dragon Crew Warrior"
					CFrameQuest = CFrame["new"](6750.4931640625, 127.44916534424, -711.03088378906)
					CFrameMon = CFrame["new"](6709.76367, 52.3442993, -1139.02966, -0.763515472, 0, .645789504, 0, 1, 0, -0.645789504, 0, -0.763515472)
				elseif MyLevel >= 1600 and MyLevel <= 1624 or SelectMonster == "Dragon Crew Archer" then
					Mon = "Dragon Crew Archer"
					NameQuest = "DragonCrewQuest"
					LevelQuest = 2
					NameMon = "Dragon Crew Archer"
					CFrameQuest = CFrame["new"](6750.4931640625, 127.44916534424, -711.03088378906)
					CFrameMon = CFrame["new"](6668.76172, 481.376923, 329.12207, -0.121787429, 0, -0.992556155, 0, 1, 0, .992556155, 0, -0.121787429)
				elseif (MyLevel < 1625 or MyLevel > 1649) and SelectMonster ~= "Hydra Enforcer" then
					if (MyLevel < 1650 or MyLevel > 1699) and SelectMonster ~= "Venomous Assailant" then
						if (MyLevel < 1700 or MyLevel > 1724) and SelectMonster ~= "Marine Commodore" then
							if (MyLevel < 1725 or MyLevel > 1774) and SelectMonster ~= "Marine Rear Admiral" then
								if (MyLevel < 1775 or MyLevel > 1799) and SelectMonster ~= "Fishman Raider" then
									if MyLevel >= 1800 and MyLevel <= 1824 or SelectMonster == "Fishman Captain" then
										Mon = "Fishman Captain"
										LevelQuest = 2
										NameQuest = "DeepForestIsland3"
										NameMon = "Fishman Captain"
										CFrameQuest = CFrame["new"](-10581.6563, 330.872955, -8761.18652, -0.882952213, 0, .469463557, 0, 1, 0, -0.469463557, 0, -0.882952213)
										CFrameMon = CFrame["new"](-10994.701171875, 352.38140869141, -9002.1103515625)
									elseif (MyLevel < 1825 or MyLevel > 1849) and SelectMonster ~= "Forest Pirate" then
										if (MyLevel < 1850 or MyLevel > 1899) and SelectMonster ~= "Mythological Pirate" then
											if MyLevel >= 1900 and MyLevel <= 1924 or SelectMonster == "Jungle Pirate" then
												Mon = "Jungle Pirate"
												LevelQuest = 1
												NameQuest = "DeepForestIsland2"
												NameMon = "Jungle Pirate"
												CFrameQuest = CFrame["new"](-12680.3818, 389.971039, -9902.01953, -0.0871315002, 0, .996196866, 0, 1, 0, -0.996196866, 0, -0.0871315002)
												CFrameMon = CFrame["new"](-12256.16015625, 331.73828125, -10485.836914062)
											elseif MyLevel >= 1925 and MyLevel <= 1974 or SelectMonster == "Musketeer Pirate" then
												Mon = "Musketeer Pirate"
												LevelQuest = 2
												NameQuest = "DeepForestIsland2"
												NameMon = "Musketeer Pirate"
												CFrameQuest = CFrame["new"](-12680.3818, 389.971039, -9902.01953, -0.0871315002, 0, .996196866, 0, 1, 0, -0.996196866, 0, -0.0871315002)
												CFrameMon = CFrame["new"](-13457.904296875, 391.54565429688, -9859.177734375)
											elseif MyLevel >= 1975 and MyLevel <= 1999 or SelectMonster == "Reborn Skeleton" then
												Mon = "Reborn Skeleton"
												LevelQuest = 1
												NameQuest = "HauntedQuest1"
												NameMon = "Reborn Skeleton"
												CFrameQuest = CFrame["new"](-9479.2168, 141.215088, 5566.09277, 0, 0, 1, 0, 1, 0, -1, 0, 0)
												CFrameMon = CFrame["new"](-8763.7236328125, 165.72299194336, 6159.8618164062)
											elseif (MyLevel < 2000 or MyLevel > 2024) and SelectMonster ~= "Living Zombie" then
												if MyLevel >= 2025 and MyLevel <= 2049 or SelectMonster == "Demonic Soul" then
													Mon = "Demonic Soul"
													LevelQuest = 1
													NameQuest = "HauntedQuest2"
													NameMon = "Demonic Soul"
													CFrameQuest = CFrame["new"](-9516.99316, 172.017181, 6078.46533, 0, 0, -1, 0, 1, 0, 1, 0, 0)
													CFrameMon = CFrame["new"](-9505.8720703125, 172.10482788086, 6158.9931640625)
												elseif MyLevel >= 2050 and MyLevel <= 2074 or SelectMonster == "Posessed Mummy" then
													Mon = "Posessed Mummy"
													LevelQuest = 2
													NameQuest = "HauntedQuest2"
													NameMon = "Posessed Mummy"
													CFrameQuest = CFrame["new"](-9516.99316, 172.017181, 6078.46533, 0, 0, -1, 0, 1, 0, 1, 0, 0)
													CFrameMon = CFrame["new"](-9582.0224609375, 6.2515273094177, 6205.478515625)
												elseif (MyLevel < 2075 or MyLevel > 2099) and SelectMonster ~= "Peanut Scout" then
													if MyLevel >= 2100 and MyLevel <= 2124 or SelectMonster == "Peanut President" then
														Mon = "Peanut President"
														LevelQuest = 2
														NameQuest = "NutsIslandQuest"
														NameMon = "Peanut President"
														CFrameQuest = CFrame["new"](-2104.3908691406, 38.104167938232, -10194.21875, 0, 0, -1, 0, 1, 0, 1, 0, 0)
														CFrameMon = CFrame["new"](-1859.3540039062, 38.103168487549, -10422.4296875)
													elseif MyLevel >= 2125 and MyLevel <= 2149 or SelectMonster == "Ice Cream Chef" then
														Mon = "Ice Cream Chef"
														LevelQuest = 1
														NameQuest = "IceCreamIslandQuest"
														NameMon = "Ice Cream Chef"
														CFrameQuest = CFrame["new"](-820.64825439453, 65.819526672363, -10965.795898438, 0, 0, -1, 0, 1, 0, 1, 0, 0)
														CFrameMon = CFrame["new"](-872.24658203125, 65.81957244873, -10919.95703125)
													elseif MyLevel >= 2150 and MyLevel <= 2199 or SelectMonster == "Ice Cream Commander" then
														Mon = "Ice Cream Commander"
														LevelQuest = 2
														NameQuest = "IceCreamIslandQuest"
														NameMon = "Ice Cream Commander"
														CFrameQuest = CFrame["new"](-820.64825439453, 65.819526672363, -10965.795898438, 0, 0, -1, 0, 1, 0, 1, 0, 0)
														CFrameMon = CFrame["new"](-558.06103515625, 112.04895782471, -11290.774414062)
													elseif MyLevel >= 2200 and MyLevel <= 2224 or SelectMonster == "Cookie Crafter" then
														Mon = "Cookie Crafter"
														LevelQuest = 1
														NameQuest = "CakeQuest1"
														NameMon = "Cookie Crafter"
														CFrameQuest = CFrame["new"](-2021.32007, 37.7982254, -12028.7295, .957576931, -8.80302053e-08, .288177818, 6.9301187e-08, 1, 7.51931211e-08, -0.288177818, -5.2032135e-08, .957576931)
														CFrameMon = CFrame["new"](-2374.13671875, 37.798263549805, -12125.30859375)
													elseif (MyLevel < 2225 or MyLevel > 2249) and SelectMonster ~= "Cake Guard" then
														if MyLevel >= 2250 and MyLevel <= 2274 or SelectMonster == "Baking Staff" then
															Mon = "Baking Staff"
															LevelQuest = 1
															NameQuest = "CakeQuest2"
															NameMon = "Baking Staff"
															CFrameQuest = CFrame["new"](-1927.91602, 37.7981339, -12842.5391, -0.96804446, 4.22142143e-08, .250778586, 4.74911062e-08, 1, 1.49904711e-08, -0.250778586, 2.64211941e-08, -0.96804446)
															CFrameMon = CFrame["new"](-1887.8099365234, 77.618507385254, -12998.350585938)
														elseif MyLevel >= 2275 and MyLevel <= 2299 or SelectMonster == "Head Baker" then
															Mon = "Head Baker"
															LevelQuest = 2
															NameQuest = "CakeQuest2"
															NameMon = "Head Baker"
															CFrameQuest = CFrame["new"](-1927.91602, 37.7981339, -12842.5391, -0.96804446, 4.22142143e-08, .250778586, 4.74911062e-08, 1, 1.49904711e-08, -0.250778586, 2.64211941e-08, -0.96804446)
															CFrameMon = CFrame["new"](-2216.1882324219, 82.884521484375, -12869.293945312)
														elseif (MyLevel < 2300 or MyLevel > 2324) and SelectMonster ~= "Cocoa Warrior" then
															if MyLevel >= 2325 and MyLevel <= 2349 or SelectMonster == L_3_[168]({
																"Chocolate Bar Battle",
																"r"
															}) then
																Mon = L_3_[168]({
																	"Chocolate Bar Battle";
																	"r"
																})
																LevelQuest = 2
																NameQuest = "ChocQuest1"
																NameMon = L_3_[168]({
																	"Chocolate Bar Battle";
																	"r"
																})
																CFrameQuest = CFrame["new"](233.22836303711, 29.876001358032, -12201.233398438)
																CFrameMon = CFrame["new"](582.59057617188, 77.188095092773, -12463.162109375)
															elseif MyLevel >= 2350 and MyLevel <= 2374 or SelectMonster == "Sweet Thief" then
																Mon = "Sweet Thief"
																LevelQuest = 1
																NameQuest = "ChocQuest2"
																NameMon = "Sweet Thief"
																CFrameQuest = CFrame["new"](150.50663757324, 30.693693161011, -12774.502929688)
																CFrameMon = CFrame["new"](165.1884765625, 76.058853149414, -12600.836914062)
															elseif MyLevel >= 2375 and MyLevel <= 2399 or SelectMonster == "Candy Rebel" then
																Mon = "Candy Rebel"
																LevelQuest = 2
																NameQuest = "ChocQuest2"
																NameMon = "Candy Rebel"
																CFrameQuest = CFrame["new"](150.50663757324, 30.693693161011, -12774.502929688)
																CFrameMon = CFrame["new"](134.86563110352, 77.247680664062, -12876.547851562)
															elseif (MyLevel < 2400 or MyLevel > 2424) and SelectMonster ~= "Candy Pirate" then
																if MyLevel >= 2425 and MyLevel <= 2449 or SelectMonster == "Snow Demon" then
																	Mon = "Snow Demon"
																	LevelQuest = 2
																	NameQuest = "CandyQuest1"
																	NameMon = "Snow Demon"
																	CFrameQuest = CFrame["new"](-1150.0400390625, 20.378934860229, -14446.334960938)
																	CFrameMon = CFrame["new"](-880.20062255859, 71.247764587402, -14538.609375)
																elseif MyLevel >= 2450 and MyLevel <= 2474 or SelectMonster == "Isle Outlaw" then
																	Mon = "Isle Outlaw"
																	LevelQuest = 1
																	NameQuest = "TikiQuest1"
																	NameMon = "Isle Outlaw"
																	CFrameQuest = CFrame["new"](-16547.748046875, 61.135334014893, -173.41360473633)
																	CFrameMon = CFrame["new"](-16442.814453125, 116.13899993896, -264.46377563477)
																elseif (MyLevel < 2475 or MyLevel > 2524) and SelectMonster ~= "Island Boy" then
																	if MyLevel >= 2525 and MyLevel <= 2550 or SelectMonster == "Isle Champion" then
																		Mon = "Isle Champion"
																		LevelQuest = 2
																		NameQuest = "TikiQuest2"
																		NameMon = "Isle Champion"
																		CFrameQuest = CFrame["new"](-16539.078125, 55.686328887939, 1051.5738525391)
																		CFrameMon = CFrame["new"](-16641.6796875, 235.78254699707, 1031.2829589844)
																	elseif (MyLevel < 2550 or MyLevel > 2574) and SelectMonster ~= "Serpent Hunter" then
																		if MyLevel >= 2575 or SelectMonster == "Skull Slayer" then
																			Mon = "Skull Slayer"
																			LevelQuest = 2
																			NameQuest = "TikiQuest3"
																			NameMon = "Skull Slayer"
																			CFrameQuest = CFrame["new"](-16665.1914, 104.596405, 1579.69434, .951068401, 0, -0.308980465, 0, 1, 0, .308980465, 0, .951068401)
																			CFrameMon = CFrame["new"](-16855.043, 122.457253, 1478.15308, -0.999392271, 0, -0.0348687991, 0, 1, 0, .0348687991, 0, -0.999392271)
																		end
																	else
																		Mon = "Serpent Hunter"
																		LevelQuest = 1
																		NameQuest = "TikiQuest3"
																		NameMon = "Serpent Hunter"
																		CFrameQuest = CFrame["new"](-16665.1914, 104.596405, 1579.69434, .951068401, 0, -0.308980465, 0, 1, 0, .308980465, 0, .951068401)
																		CFrameMon = CFrame["new"](-16521.0625, 106.09285, 1488.78467, .469467044, 0, .882950008, 0, 1, 0, -0.882950008, 0, .469467044)
																	end
																else
																	Mon = "Island Boy"
																	LevelQuest = 2
																	NameQuest = "TikiQuest1"
																	NameMon = "Island Boy"
																	CFrameQuest = CFrame["new"](-16547.748046875, 61.135334014893, -173.41360473633)
																	CFrameMon = CFrame["new"](-16901.26171875, 84.067565917969, -192.88906860352)
																end
															else
																Mon = "Candy Pirate"
																LevelQuest = 1
																NameQuest = "CandyQuest1"
																NameMon = "Candy Pirate"
																CFrameQuest = CFrame["new"](-1150.0400390625, 20.378934860229, -14446.334960938)
																CFrameMon = CFrame["new"](-1310.5003662109, 26.016523361206, -14562.404296875)
															end
														else
															Mon = "Cocoa Warrior"
															LevelQuest = 1
															NameQuest = "ChocQuest1"
															NameMon = "Cocoa Warrior"
															CFrameQuest = CFrame["new"](233.22836303711, 29.876001358032, -12201.233398438)
															CFrameMon = CFrame["new"](-21.553283691406, 80.574996948242, -12352.387695312)
														end
													else
														Mon = "Cake Guard"
														LevelQuest = 2
														NameQuest = "CakeQuest1"
														NameMon = "Cake Guard"
														CFrameQuest = CFrame["new"](-2021.32007, 37.7982254, -12028.7295, .957576931, -8.80302053e-08, .288177818, 6.9301187e-08, 1, 7.51931211e-08, -0.288177818, -5.2032135e-08, .957576931)
														CFrameMon = CFrame["new"](-1598.3070068359, 43.773197174072, -12244.581054688)
													end
												else
													Mon = "Peanut Scout"
													LevelQuest = 1
													NameQuest = "NutsIslandQuest"
													NameMon = "Peanut Scout"
													CFrameQuest = CFrame["new"](-2104.3908691406, 38.104167938232, -10194.21875, 0, 0, -1, 0, 1, 0, 1, 0, 0)
													CFrameMon = CFrame["new"](-2143.2419433594, 47.721984863281, -10029.995117188)
												end
											else
												Mon = "Living Zombie"
												LevelQuest = 2
												NameQuest = "HauntedQuest1"
												NameMon = "Living Zombie"
												CFrameQuest = CFrame["new"](-9479.2168, 141.215088, 5566.09277, 0, 0, 1, 0, 1, 0, -1, 0, 0)
												CFrameMon = CFrame["new"](-10144.131835938, 138.6266784668, 5838.0888671875)
											end
										else
											Mon = "Mythological Pirate"
											LevelQuest = 2
											NameQuest = "DeepForestIsland"
											NameMon = "Mythological Pirate"
											CFrameQuest = CFrame["new"](-13234.04, 331.488495, -7625.40137, .707134247, 0, -0.707079291, 0, 1, 0, .707079291, 0, .707134247)
											CFrameMon = CFrame["new"](-13680.607421875, 501.08154296875, -6991.189453125)
										end
									else
										Mon = "Forest Pirate"
										LevelQuest = 1
										NameQuest = "DeepForestIsland"
										NameMon = "Forest Pirate"
										CFrameQuest = CFrame["new"](-13234.04, 331.488495, -7625.40137, .707134247, 0, -0.707079291, 0, 1, 0, .707079291, 0, .707134247)
										CFrameMon = CFrame["new"](-13274.478515625, 332.37814331055, -7769.5805664062)
									end
								else
									Mon = "Fishman Raider"
									LevelQuest = 1
									NameQuest = "DeepForestIsland3"
									NameMon = "Fishman Raider"
									CFrameQuest = CFrame["new"](-10581.6563, 330.872955, -8761.18652, -0.882952213, 0, .469463557, 0, 1, 0, -0.469463557, 0, -0.882952213)
									CFrameMon = CFrame["new"](-10407.526367188, 331.76263427734, -8368.5166015625)
								end
							else
								Mon = "Marine Rear Admiral"
								LevelQuest = 2
								NameQuest = "MarineTreeIsland"
								NameMon = "Marine Rear Admiral"
								CFrameQuest = CFrame["new"](2481.0922851562, 74.270492553711, -6779.640625)
								CFrameMon = CFrame["new"](3761.81006, 123.912003, -6823.52197, .961273968, 0, .275594592, 0, 1, 0, -0.275594592, 0, .961273968)
							end
						else
							Mon = "Marine Commodore"
							LevelQuest = 1
							NameQuest = "MarineTreeIsland"
							NameMon = "Marine Commodore"
							CFrameQuest = CFrame["new"](2481.0922851562, 74.270492553711, -6779.640625)
							CFrameMon = CFrame["new"](2577.25391, 75.6100006, -7739.87207, .499959469, 0, .866048813, 0, 1, 0, -0.866048813, 0, .499959469)
						end
					else
						Mon = "Venomous Assailant"
						NameQuest = "VenomCrewQuest"
						LevelQuest = 2
						NameMon = "Venomous Assailant"
						CFrameQuest = CFrame["new"](5206.4018554688, 1004.1049804688, 748.35046386719)
						CFrameMon = CFrame["new"](4674.92676, 1134.82654, 996.308838, .731321394, 0, -0.682033002, 0, 1, 0, .682033002, 0, .731321394)
					end
				else
					Mon = "Hydra Enforcer"
					NameQuest = "VenomCrewQuest"
					LevelQuest = 1
					NameMon = "Hydra Enforcer"
					CFrameQuest = CFrame["new"](5206.4018554688, 1004.1049804688, 748.35046386719)
					CFrameMon = CFrame["new"](4547.11523, 1003.10217, 334.194824, .388810456, 0, -0.921317935, 0, 1, 0, .921317935, 0, .388810456)
				end
			else
				Mon = "Pistol Billionaire"
				LevelQuest = 2
				NameQuest = "PiratePortQuest"
				NameMon = "Pistol Billionaire"
				CFrameQuest = CFrame["new"](-450.104645, 107.681458, 5950.72607, .957107544, 0, -0.289732844, 0, 1, 0, .289732844, 0, .957107544)
				CFrameMon = CFrame["new"](-54.8110352, 83.7698746, 5947.84082, -0.965929747, 0, .258804798, 0, 1, 0, -0.258804798, 0, -0.965929747)
			end
		end
	elseif (MyLevel < 700 or MyLevel > 724) and SelectMonster ~= "Raider" then
		if MyLevel >= 725 and MyLevel <= 774 or SelectMonster == "Mercenary" then
			Mon = "Mercenary"
			LevelQuest = 2
			NameQuest = "Area1Quest"
			NameMon = "Mercenary"
			CFrameQuest = CFrame["new"](-429.543518, 71.7699966, 1836.18188, -0.22495985, 0, -0.974368095, 0, 1, 0, .974368095, 0, -0.22495985)
			CFrameMon = CFrame["new"](-1004.3244018555, 80.158866882324, 1424.6193847656)
		elseif MyLevel >= 775 and MyLevel <= 799 or SelectMonster == "Swan Pirate" then
			Mon = "Swan Pirate"
			LevelQuest = 1
			NameQuest = "Area2Quest"
			NameMon = "Swan Pirate"
			CFrameQuest = CFrame["new"](638.43811, 71.769989, 918.282898, .139203906, 0, .99026376, 0, 1, 0, -0.99026376, 0, .139203906)
			CFrameMon = CFrame["new"](1068.6643066406, 137.61428833008, 1322.1060791016)
		elseif (MyLevel < 800 or MyLevel > 874) and SelectMonster ~= "Factory Staff" then
			if MyLevel >= 875 and MyLevel <= 899 or SelectMonster == "Marine Lieutenant" then
				Mon = "Marine Lieutenant"
				LevelQuest = 1
				NameQuest = "MarineQuest3"
				NameMon = "Marine Lieutenant"
				CFrameQuest = CFrame["new"](-2440.79639, 71.7140732, -3216.06812, .866007268, 0, .500031412, 0, 1, 0, -0.500031412, 0, .866007268)
				CFrameMon = CFrame["new"](-2821.3723144531, 75.897277832031, -3070.0891113281)
			elseif MyLevel >= 900 and MyLevel <= 949 or SelectMonster == "Marine Captain" then
				Mon = "Marine Captain"
				LevelQuest = 2
				NameQuest = "MarineQuest3"
				NameMon = "Marine Captain"
				CFrameQuest = CFrame["new"](-2440.79639, 71.7140732, -3216.06812, .866007268, 0, .500031412, 0, 1, 0, -0.500031412, 0, .866007268)
				CFrameMon = CFrame["new"](-1861.2310791016, 80.176582336426, -3254.6975097656)
			elseif (MyLevel < 950 or MyLevel > 974) and SelectMonster ~= "Zombie" then
				if MyLevel >= 975 and MyLevel <= 999 or SelectMonster == "Vampire" then
					Mon = "Vampire"
					LevelQuest = 2
					NameQuest = "ZombieQuest"
					NameMon = "Vampire"
					CFrameQuest = CFrame["new"](-5497.06152, 47.5923004, -795.237061, -0.29242146, 0, -0.95628953, 0, 1, 0, .95628953, 0, -0.29242146)
					CFrameMon = CFrame["new"](-6037.66796875, 32.184638977051, -1340.6597900391)
				elseif (MyLevel < 1000 or MyLevel > 1049) and SelectMonster ~= "Snow Trooper" then
					if MyLevel >= 1050 and MyLevel <= 1099 or SelectMonster == "Winter Warrior" then
						Mon = "Winter Warrior"
						LevelQuest = 2
						NameQuest = "SnowMountainQuest"
						NameMon = "Winter Warrior"
						CFrameQuest = CFrame["new"](609.858826, 400.119904, -5372.25928, -0.374604106, 0, .92718488, 0, 1, 0, -0.92718488, 0, -0.374604106)
						CFrameMon = CFrame["new"](1142.7451171875, 475.63980102539, -5199.4165039062)
					elseif MyLevel >= 1100 and MyLevel <= 1124 or SelectMonster == "Lab Subordinate" then
						Mon = "Lab Subordinate"
						LevelQuest = 1
						NameQuest = "IceSideQuest"
						NameMon = "Lab Subordinate"
						CFrameQuest = CFrame["new"](-6064.06885, 15.2422857, -4902.97852, .453972578, 0, -0.891015649, 0, 1, 0, .891015649, 0, .453972578)
						CFrameMon = CFrame["new"](-5707.4716796875, 15.951709747314, -4513.3920898438)
					elseif MyLevel >= 1125 and MyLevel <= 1174 or SelectMonster == "Horned Warrior" then
						Mon = "Horned Warrior"
						LevelQuest = 2
						NameQuest = "IceSideQuest"
						NameMon = "Horned Warrior"
						CFrameQuest = CFrame["new"](-6064.06885, 15.2422857, -4902.97852, .453972578, 0, -0.891015649, 0, 1, 0, .891015649, 0, .453972578)
						CFrameMon = CFrame["new"](-6341.3666992188, 15.951770782471, -5723.162109375)
					elseif (MyLevel < 1175 or MyLevel > 1199) and SelectMonster ~= "Magma Ninja" then
						if (MyLevel < 1200 or MyLevel > 1249) and SelectMonster ~= "Lava Pirate" then
							if MyLevel >= 1250 and MyLevel <= 1274 or SelectMonster == "Ship Deckhand" then
								Mon = "Ship Deckhand"
								LevelQuest = 1
								NameQuest = "ShipQuest1"
								NameMon = "Ship Deckhand"
								CFrameQuest = CFrame["new"](1037.80127, 125.092171, 32911.6016)
								CFrameMon = CFrame["new"](1212.0111083984, 150.79205322266, 33059.24609375)
								if _G["AutoFarm"] and (CFrameQuest["Position"] - game["Players"]["LocalPlayer"]["Character"]["HumanoidRootPart"]["Position"])["Magnitude"] > 10000 then
									(game:GetService("ReplicatedStorage"))["Remotes"]["CommF_"]:InvokeServer("requestEntrance", Vector3["new"](923.21252441406, 126.9760055542, 32852.83203125))
								end
							elseif (MyLevel < 1275 or MyLevel > 1299) and SelectMonster ~= "Ship Engineer" then
								if MyLevel >= 1300 and MyLevel <= 1324 or SelectMonster == "Ship Steward" then
									Mon = "Ship Steward"
									LevelQuest = 1
									NameQuest = "ShipQuest2"
									NameMon = "Ship Steward"
									CFrameQuest = CFrame["new"](968.80957, 125.092171, 33244.125)
									CFrameMon = CFrame["new"](919.43853759766, 129.55599975586, 33436.03515625)
									if _G["AutoFarm"] and (CFrameQuest["Position"] - game["Players"]["LocalPlayer"]["Character"]["HumanoidRootPart"]["Position"])["Magnitude"] > 10000 then
										(game:GetService("ReplicatedStorage"))["Remotes"]["CommF_"]:InvokeServer("requestEntrance", Vector3["new"](923.21252441406, 126.9760055542, 32852.83203125))
									end
								elseif (MyLevel < 1325 or MyLevel > 1349) and SelectMonster ~= "Ship Officer" then
									if (MyLevel < 1350 or MyLevel > 1374) and SelectMonster ~= "Arctic Warrior" then
										if MyLevel >= 1375 and MyLevel <= 1424 or SelectMonster == "Snow Lurker" then
											Mon = "Snow Lurker"
											LevelQuest = 2
											NameQuest = "FrostQuest"
											NameMon = "Snow Lurker"
											CFrameQuest = CFrame["new"](5667.6582, 26.7997818, -6486.08984, -0.933587909, 0, -0.358349502, 0, 1, 0, .358349502, 0, -0.933587909)
											CFrameMon = CFrame["new"](5407.0737304688, 69.194374084473, -6880.8803710938)
										elseif (MyLevel < 1425 or MyLevel > 1449) and SelectMonster ~= "Sea Soldier" then
											if MyLevel >= 1450 or SelectMonster == "Water Fighter" then
												Mon = "Water Fighter"
												LevelQuest = 2
												NameQuest = "ForgottenQuest"
												NameMon = "Water Fighter"
												CFrameQuest = CFrame["new"](-3054.44458, 235.544281, -10142.8193, .990270376, 0, -0.13915664, 0, 1, 0, .13915664, 0, .990270376)
												CFrameMon = CFrame["new"](-3352.9013671875, 285.01556396484, -10534.841796875)
											end
										else
											Mon = "Sea Soldier"
											LevelQuest = 1
											NameQuest = "ForgottenQuest"
											NameMon = "Sea Soldier"
											CFrameQuest = CFrame["new"](-3054.44458, 235.544281, -10142.8193, .990270376, 0, -0.13915664, 0, 1, 0, .13915664, 0, .990270376)
											CFrameMon = CFrame["new"](-3028.2236328125, 64.674514770508, -9775.4267578125)
										end
									else
										Mon = "Arctic Warrior"
										LevelQuest = 1
										NameQuest = "FrostQuest"
										NameMon = "Arctic Warrior"
										CFrameQuest = CFrame["new"](5667.6582, 26.7997818, -6486.08984, -0.933587909, 0, -0.358349502, 0, 1, 0, .358349502, 0, -0.933587909)
										CFrameMon = CFrame["new"](5966.24609375, 62.970020294189, -6179.3828125)
										if _G["AutoFarm"] and (CFrameQuest["Position"] - game["Players"]["LocalPlayer"]["Character"]["HumanoidRootPart"]["Position"])["Magnitude"] > 10000 then
											(game:GetService("ReplicatedStorage"))["Remotes"]["CommF_"]:InvokeServer("requestEntrance", Vector3["new"](-6508.5581054688, 5000.0349960327, -132.83953857422))
										end
									end
								else
									Mon = "Ship Officer"
									LevelQuest = 2
									NameQuest = "ShipQuest2"
									NameMon = "Ship Officer"
									CFrameQuest = CFrame["new"](968.80957, 125.092171, 33244.125)
									CFrameMon = CFrame["new"](1036.0179443359, 181.4390411377, 33315.7265625)
									if _G["AutoFarm"] and (CFrameQuest["Position"] - game["Players"]["LocalPlayer"]["Character"]["HumanoidRootPart"]["Position"])["Magnitude"] > 10000 then
										(game:GetService("ReplicatedStorage"))["Remotes"]["CommF_"]:InvokeServer("requestEntrance", Vector3["new"](923.21252441406, 126.9760055542, 32852.83203125))
									end
								end
							else
								Mon = "Ship Engineer"
								LevelQuest = 2
								NameQuest = "ShipQuest1"
								NameMon = "Ship Engineer"
								CFrameQuest = CFrame["new"](1037.80127, 125.092171, 32911.6016)
								CFrameMon = CFrame["new"](919.47863769531, 43.544013977051, 32779.96875)
								if _G["AutoFarm"] and (CFrameQuest["Position"] - game["Players"]["LocalPlayer"]["Character"]["HumanoidRootPart"]["Position"])["Magnitude"] > 10000 then
									(game:GetService("ReplicatedStorage"))["Remotes"]["CommF_"]:InvokeServer("requestEntrance", Vector3["new"](923.21252441406, 126.9760055542, 32852.83203125))
								end
							end
						else
							Mon = "Lava Pirate"
							LevelQuest = 2
							NameQuest = "FireSideQuest"
							NameMon = "Lava Pirate"
							CFrameQuest = CFrame["new"](-5428.03174, 15.0622921, -5299.43457, -0.882952213, 0, .469463557, 0, 1, 0, -0.469463557, 0, -0.882952213)
							CFrameMon = CFrame["new"](-5213.3315429688, 49.737880706787, -4701.451171875)
						end
					else
						Mon = "Magma Ninja"
						LevelQuest = 1
						NameQuest = "FireSideQuest"
						NameMon = "Magma Ninja"
						CFrameQuest = CFrame["new"](-5428.03174, 15.0622921, -5299.43457, -0.882952213, 0, .469463557, 0, 1, 0, -0.469463557, 0, -0.882952213)
						CFrameMon = CFrame["new"](-5449.6728515625, 76.658744812012, -5808.2006835938)
					end
				else
					Mon = "Snow Trooper"
					LevelQuest = 1
					NameQuest = "SnowMountainQuest"
					NameMon = "Snow Trooper"
					CFrameQuest = CFrame["new"](609.858826, 400.119904, -5372.25928, -0.374604106, 0, .92718488, 0, 1, 0, -0.92718488, 0, -0.374604106)
					CFrameMon = CFrame["new"](549.14733886719, 427.38705444336, -5563.6987304688)
				end
			else
				Mon = "Zombie"
				LevelQuest = 1
				NameQuest = "ZombieQuest"
				NameMon = "Zombie"
				CFrameQuest = CFrame["new"](-5497.06152, 47.5923004, -795.237061, -0.29242146, 0, -0.95628953, 0, 1, 0, .95628953, 0, -0.29242146)
				CFrameMon = CFrame["new"](-5657.7768554688, 78.969734191895, -928.68701171875)
			end
		else
			Mon = "Factory Staff"
			NameQuest = "Area2Quest"
			LevelQuest = 2
			NameMon = "Factory Staff"
			CFrameQuest = CFrame["new"](632.698608, 73.1055908, 918.666321, -0.0319722369, 8.96074881e-10, -0.999488771, 1.36326533e-10, 1, 8.92172336e-10, .999488771, -1.07732087e-10, -0.0319722369)
			CFrameMon = CFrame["new"](73.078674316406, 81.863441467285, -27.470672607422)
		end
	else
		Mon = "Raider"
		LevelQuest = 1
		NameQuest = "Area1Quest"
		NameMon = "Raider"
		CFrameQuest = CFrame["new"](-429.543518, 71.7699966, 1836.18188, -0.22495985, 0, -0.974368095, 0, 1, 0, .974368095, 0, -0.22495985)
		CFrameMon = CFrame["new"](-728.32672119141, 52.779319763184, 2345.7705078125)
	end
end
function Hop()
	local L_132_ = {}
	L_132_[1] = game["PlaceId"]
	L_132_[6] = {}
	L_132_[2] = ""
	L_132_[4] = (os["date"]("!*t"))["hour"]
	L_132_[3] = false
	function TPReturner()
		local L_133_ = {}
		if L_132_[2] ~= "" then
			L_133_[4] = game["HttpService"]:JSONDecode(game:HttpGet(L_3_[168]({
				"https://games.roblox";
				".com/v1/games/"
			}) .. (L_132_[1] .. (L_3_[168]({
				"/servers/Public?sort";
				"Order=Asc&limit=100&";
				"cursor="
			}) .. L_132_[2]))))
		else
			L_133_[4] = game["HttpService"]:JSONDecode(game:HttpGet(L_3_[168]({
				"https://games.roblox",
				".com/v1/games/"
			}) .. (L_132_[1] .. L_3_[168]({
				"/servers/Public?sort",
				"Order=Asc&limit=100"
			}))))
		end
		L_133_[2] = ""
		if L_133_[4]["nextPageCursor"] and (L_133_[4]["nextPageCursor"] ~= "null" and L_133_[4]["nextPageCursor"] ~= "null") then
			L_132_[2] = L_133_[4]["nextPageCursor"]
		end
		L_133_[1] = 0
		for L_134_forvar0, L_135_forvar1 in pairs(L_133_[4]["data"]) do
			local L_136_ = {}
			L_136_[3], L_136_[1] = L_134_forvar0, L_135_forvar1
			L_136_[2] = true
			L_133_[2] = tostring(L_136_[1]["id"])
			if tonumber(L_136_[1]["maxPlayers"]) > tonumber(L_136_[1]["playing"]) then
				for L_137_forvar0, L_138_forvar1 in pairs(L_132_[6]) do
					local L_139_ = {}
					L_139_[3], L_139_[2] = L_137_forvar0, L_138_forvar1
					if L_133_[1] ~= 0 then
						if L_133_[2] == tostring(L_139_[2]) then
							L_136_[2] = false
						end
					elseif tonumber(L_132_[4]) ~= tonumber(L_139_[2]) then
						local L_140_ = {}
						L_140_[1] = pcall(function()
							L_132_[6] = {}
							table["insert"](L_132_[6], L_132_[4])
						end)
					end
					L_133_[1] = L_133_[1] + 1
				end
				if L_136_[2] == true then
					table["insert"](L_132_[6], L_133_[2])
					wait(.1)
					pcall(function()
						wait();
						(game:GetService("TeleportService")):TeleportToPlaceInstance(L_132_[1], L_133_[2], game["Players"]["LocalPlayer"])
					end)
					wait(.1)
				end
			end
		end
	end
	function Teleport()
		while wait(.1) do
			pcall(function()
				TPReturner()
				if L_132_[2] ~= "" then
					TPReturner()
				end
			end)
		end
	end
	Teleport()
end
function CheckItem(L_141_arg0)
	local L_142_ = {}
	L_142_[2] = L_141_arg0
	for L_143_forvar0, L_144_forvar1 in pairs((game:GetService("ReplicatedStorage"))["Remotes"]["CommF_"]:InvokeServer("getInventory")) do
		local L_145_ = {}
		L_145_[1], L_145_[2] = L_143_forvar0, L_144_forvar1
		if L_145_[2]["Name"] == L_142_[2] then
			return L_145_[2]
		end
	end
end
function UpdateIslandESP()
	for L_146_forvar0, L_147_forvar1 in pairs((game:GetService("Workspace"))["_WorldOrigin"]["Locations"]:GetChildren()) do
		local L_148_ = {}
		L_148_[3], L_148_[1] = L_146_forvar0, L_147_forvar1
		do
			local L_149_ = {}
			L_149_[1] = L_148_[1]
			pcall(function()
				if IslandESP then
					if L_149_[1]["Name"] ~= "Sea" then
						if not L_149_[1]:FindFirstChild("NameEsp") then
							local L_150_ = {}
							L_150_[1] = Instance["new"]("BillboardGui", L_149_[1])
							L_150_[1]["Name"] = "NameEsp"
							L_150_[1]["ExtentsOffset"] = Vector3["new"](0, 1, 0)
							L_150_[1]["Size"] = UDim2["new"](1, 200, 1, 30)
							L_150_[1]["Adornee"] = L_149_[1]
							L_150_[1]["AlwaysOnTop"] = true
							L_150_[2] = Instance["new"]("TextLabel", L_150_[1])
							L_150_[2]["Font"] = "GothamSemibold"
							L_150_[2]["FontSize"] = "Size14"
							L_150_[2]["TextWrapped"] = true
							L_150_[2]["Size"] = UDim2["new"](1, 0, 1, 0)
							L_150_[2]["TextYAlignment"] = "Top"
							L_150_[2][L_3_[168]({
								"BackgroundTransparen";
								"cy"
							})] = 1
							L_150_[2][L_3_[168]({
								"TextStrokeTransparen";
								"cy"
							})] = .5
							L_150_[2]["TextColor3"] = Color3["fromRGB"](255, 255, 255)
						else
							L_149_[1]["NameEsp"]["TextLabel"]["Text"] = L_149_[1]["Name"] .. ("   
" .. (round(((game:GetService("Players"))["LocalPlayer"]["Character"]["Head"]["Position"] - L_149_[1]["Position"])["Magnitude"] / 3) .. " Distance"))
						end
					end
				elseif L_149_[1]:FindFirstChild("NameEsp") then
					(L_149_[1]:FindFirstChild("NameEsp")):Destroy()
				end
			end)
		end
	end
end
function isnil(L_151_arg0)
	local L_152_ = {}
	L_152_[1] = L_151_arg0
	L_152_[2] = nil
	if L_152_[1] ~= L_152_[2] then
		local L_153_ = {}
		L_153_[1] = false
	end
	return true
end
L_3_[100] = function(L_154_arg0)
	local L_155_ = {}
	L_155_[1] = L_154_arg0
	return math["floor"](tonumber(L_155_[1]) + .5)
end
Number = math["random"](1, 1000000)
function UpdatePlayerChams()
	for L_156_forvar0, L_157_forvar1 in pairs((game:GetService("Players")):GetChildren()) do
		local L_158_ = {}
		L_158_[2], L_158_[1] = L_156_forvar0, L_157_forvar1
		do
			local L_159_ = {}
			L_159_[2] = L_158_[1]
			pcall(function()
				if not isnil(L_159_[2]["Character"]) then
					if not ESPPlayer then
						if L_159_[2]["Character"]["Head"]:FindFirstChild("NameEsp" .. Number) then
							(L_159_[2]["Character"]["Head"]:FindFirstChild("NameEsp" .. Number)):Destroy()
						end
					elseif not isnil(L_159_[2]["Character"]["Head"]) and not L_159_[2]["Character"]["Head"]:FindFirstChild("NameEsp" .. Number) then
						local L_160_ = {}
						L_160_[3] = Instance["new"]("BillboardGui", L_159_[2]["Character"]["Head"])
						L_160_[3]["Name"] = "NameEsp" .. Number
						L_160_[3]["ExtentsOffset"] = Vector3["new"](0, 1, 0)
						L_160_[3]["Size"] = UDim2["new"](1, 200, 1, 30)
						L_160_[3]["Adornee"] = L_159_[2]["Character"]["Head"]
						L_160_[3]["AlwaysOnTop"] = true
						L_160_[2] = Instance["new"]("TextLabel", L_160_[3])
						L_160_[2]["Font"] = Enum["Font"]["GothamSemibold"]
						L_160_[2]["FontSize"] = "Size14"
						L_160_[2]["TextWrapped"] = true
						L_160_[2]["Text"] = L_159_[2]["Name"] .. (" 
" .. (L_3_[100](((game:GetService("Players"))["LocalPlayer"]["Character"]["Head"]["Position"] - L_159_[2]["Character"]["Head"]["Position"])["Magnitude"] / 3) .. " Distance"))
						L_160_[2]["Size"] = UDim2["new"](1, 0, 1, 0)
						L_160_[2]["TextYAlignment"] = "Top"
						L_160_[2][L_3_[168]({
							"BackgroundTransparen";
							"cy"
						})] = 1
						L_160_[2][L_3_[168]({
							"TextStrokeTransparen",
							"cy"
						})] = .5
						if L_159_[2]["Team"] == game["Players"]["LocalPlayer"]["Team"] then
							L_160_[2]["TextColor3"] = Color3["new"](0, 255, 0)
						else
							L_160_[2]["TextColor3"] = Color3["new"](255, 0, 0)
						end
					else
						L_159_[2]["Character"]["Head"]["NameEsp" .. Number]["TextLabel"]["Text"] = L_159_[2]["Name"] .. (" | " .. (L_3_[100](((game:GetService("Players"))["LocalPlayer"]["Character"]["Head"]["Position"] - L_159_[2]["Character"]["Head"]["Position"])["Magnitude"] / 3) .. (" Distance
Health : " .. (L_3_[100]((L_159_[2]["Character"]["Humanoid"]["Health"] * 100) / L_159_[2]["Character"]["Humanoid"]["MaxHealth"]) .. "%"))))
					end
				end
			end)
		end
	end
end
function UpdateChestESP()
	for L_161_forvar0, L_162_forvar1 in pairs((game:GetService("CollectionService")):GetTagged("_ChestTagged")) do
		local L_163_ = {}
		L_163_[3], L_163_[1] = L_161_forvar0, L_162_forvar1
		do
			local L_164_ = {}
			L_164_[2] = L_163_[1]
			pcall(function()
				if _G["ChestESP"] then
					if not L_164_[2]:GetAttribute("IsDisabled") then
						if not L_164_[2]:FindFirstChild("ChestEsp") then
							local L_165_ = {}
							L_165_[3] = Instance["new"]("BillboardGui", L_164_[2])
							L_165_[3]["Name"] = "ChestEsp"
							L_165_[3]["ExtentsOffset"] = Vector3["new"](0, 1, 0)
							L_165_[3]["Size"] = UDim2["new"](1, 200, 1, 30)
							L_165_[3]["Adornee"] = L_164_[2]
							L_165_[3]["AlwaysOnTop"] = true
							L_165_[2] = Instance["new"]("TextLabel", L_165_[3])
							L_165_[2]["Font"] = "Code"
							L_165_[2]["FontSize"] = "Size14"
							L_165_[2]["TextWrapped"] = true
							L_165_[2]["Size"] = UDim2["new"](1, 0, 1, 0)
							L_165_[2]["TextYAlignment"] = "Top"
							L_165_[2][L_3_[168]({
								"BackgroundTransparen";
								"cy"
							})] = 1
							L_165_[2][L_3_[168]({
								"TextStrokeTransparen",
								"cy"
							})] = .5
							L_165_[2]["TextColor3"] = Color3["fromRGB"](255, 215, 0)
						else
							local L_166_ = {}
							L_166_[1] = L_3_[100](((game:GetService("Players"))["LocalPlayer"]["Character"]["Head"]["Position"] - (L_164_[2]:GetPivot())["Position"])["Magnitude"] / 3)
							L_164_[2]["ChestEsp"]["TextLabel"]["Text"] = "Chest
" .. (L_166_[1] .. " M")
						end
					end
				elseif L_164_[2]:FindFirstChild("ChestEsp") then
					(L_164_[2]:FindFirstChild("ChestEsp")):Destroy()
				end
			end)
		end
	end
end
L_3_[100] = function(L_167_arg0)
	local L_168_ = {}
	L_168_[2] = L_167_arg0
	return math["floor"](L_168_[2] + .5)
end
function UpdateDevilChams()
	for L_169_forvar0, L_170_forvar1 in pairs(game["Workspace"]:GetChildren()) do
		local L_171_ = {}
		L_171_[3], L_171_[2] = L_169_forvar0, L_170_forvar1
		do
			local L_172_ = {}
			L_172_[1] = L_171_[2]
			pcall(function()
				if DevilFruitESP then
					if string["find"](L_172_[1]["Name"], "Fruit") then
						if not L_172_[1]["Handle"]:FindFirstChild("NameEsp" .. Number) then
							local L_173_ = {}
							L_173_[1] = Instance["new"]("BillboardGui", L_172_[1]["Handle"])
							L_173_[1]["Name"] = "NameEsp" .. Number
							L_173_[1]["ExtentsOffset"] = Vector3["new"](0, 1, 0)
							L_173_[1]["Size"] = UDim2["new"](1, 200, 1, 30)
							L_173_[1]["Adornee"] = L_172_[1]["Handle"]
							L_173_[1]["AlwaysOnTop"] = true
							L_173_[2] = Instance["new"]("TextLabel", L_173_[1])
							L_173_[2]["Font"] = Enum["Font"]["GothamSemibold"]
							L_173_[2]["FontSize"] = "Size14"
							L_173_[2]["TextWrapped"] = true
							L_173_[2]["Size"] = UDim2["new"](1, 0, 1, 0)
							L_173_[2]["TextYAlignment"] = "Top"
							L_173_[2][L_3_[168]({
								"BackgroundTransparen",
								"cy"
							})] = 1
							L_173_[2][L_3_[168]({
								"TextStrokeTransparen",
								"cy"
							})] = .5
							L_173_[2]["TextColor3"] = Color3["fromRGB"](255, 255, 255)
							L_173_[2]["Text"] = L_172_[1]["Name"] .. (" 
" .. (L_3_[100](((game:GetService("Players"))["LocalPlayer"]["Character"]["Head"]["Position"] - L_172_[1]["Handle"]["Position"])["Magnitude"] / 3) .. " Distance"))
						else
							L_172_[1]["Handle"]["NameEsp" .. Number]["TextLabel"]["Text"] = L_172_[1]["Name"] .. ("   
" .. (L_3_[100](((game:GetService("Players"))["LocalPlayer"]["Character"]["Head"]["Position"] - L_172_[1]["Handle"]["Position"])["Magnitude"] / 3) .. " Distance"))
						end
					end
				elseif L_172_[1]["Handle"]:FindFirstChild("NameEsp" .. Number) then
					(L_172_[1]["Handle"]:FindFirstChild("NameEsp" .. Number)):Destroy()
				end
			end)
		end
	end
end
function UpdateFlowerChams()
	for L_174_forvar0, L_175_forvar1 in pairs(game["Workspace"]:GetChildren()) do
		local L_176_ = {}
		L_176_[2], L_176_[1] = L_174_forvar0, L_175_forvar1
		do
			local L_177_ = {}
			L_177_[2] = L_176_[1]
			pcall(function()
				if L_177_[2]["Name"] == "Flower2" or L_177_[2]["Name"] == "Flower1" then
					if FlowerESP then
						if L_177_[2]:FindFirstChild("NameEsp" .. Number) then
							L_177_[2]["NameEsp" .. Number]["TextLabel"]["Text"] = L_177_[2]["Name"] .. ("   
" .. (L_3_[100](((game:GetService("Players"))["LocalPlayer"]["Character"]["Head"]["Position"] - L_177_[2]["Position"])["Magnitude"] / 3) .. " Distance"))
						else
							local L_178_ = {}
							L_178_[2] = Instance["new"]("BillboardGui", L_177_[2])
							L_178_[2]["Name"] = "NameEsp" .. Number
							L_178_[2]["ExtentsOffset"] = Vector3["new"](0, 1, 0)
							L_178_[2]["Size"] = UDim2["new"](1, 200, 1, 30)
							L_178_[2]["Adornee"] = L_177_[2]
							L_178_[2]["AlwaysOnTop"] = true
							L_178_[3] = Instance["new"]("TextLabel", L_178_[2])
							L_178_[3]["Font"] = Enum["Font"]["GothamSemibold"]
							L_178_[3]["FontSize"] = "Size14"
							L_178_[3]["TextWrapped"] = true
							L_178_[3]["Size"] = UDim2["new"](1, 0, 1, 0)
							L_178_[3]["TextYAlignment"] = "Top"
							L_178_[3][L_3_[168]({
								"BackgroundTransparen";
								"cy"
							})] = 1
							L_178_[3][L_3_[168]({
								"TextStrokeTransparen";
								"cy"
							})] = .5
							L_178_[3]["TextColor3"] = Color3["fromRGB"](255, 0, 0)
							if L_177_[2]["Name"] == "Flower1" then
								L_178_[3]["Text"] = "Blue Flower" .. (" 
" .. (L_3_[100](((game:GetService("Players"))["LocalPlayer"]["Character"]["Head"]["Position"] - L_177_[2]["Position"])["Magnitude"] / 3) .. " Distance"))
								L_178_[3]["TextColor3"] = Color3["fromRGB"](0, 0, 255)
							end
							if L_177_[2]["Name"] == "Flower2" then
								L_178_[3]["Text"] = "Red Flower" .. (" 
" .. (L_3_[100](((game:GetService("Players"))["LocalPlayer"]["Character"]["Head"]["Position"] - L_177_[2]["Position"])["Magnitude"] / 3) .. " Distance"))
								L_178_[3]["TextColor3"] = Color3["fromRGB"](255, 0, 0)
							end
						end
					elseif L_177_[2]:FindFirstChild("NameEsp" .. Number) then
						(L_177_[2]:FindFirstChild("NameEsp" .. Number)):Destroy()
					end
				end
			end)
		end
	end
end
function UpdateRealFruitChams()
	for L_179_forvar0, L_180_forvar1 in pairs(game["Workspace"]["AppleSpawner"]:GetChildren()) do
		local L_181_ = {}
		L_181_[1], L_181_[3] = L_179_forvar0, L_180_forvar1
		if L_181_[3]:IsA("Tool") then
			if not RealFruitESP then
				if L_181_[3]["Handle"]:FindFirstChild("NameEsp" .. Number) then
					(L_181_[3]["Handle"]:FindFirstChild("NameEsp" .. Number)):Destroy()
				end
			elseif L_181_[3]["Handle"]:FindFirstChild("NameEsp" .. Number) then
				L_181_[3]["Handle"]["NameEsp" .. Number]["TextLabel"]["Text"] = L_181_[3]["Name"] .. (" " .. (L_3_[100](((game:GetService("Players"))["LocalPlayer"]["Character"]["Head"]["Position"] - L_181_[3]["Handle"]["Position"])["Magnitude"] / 3) .. " Distance"))
			else
				local L_182_ = {}
				L_182_[2] = Instance["new"]("BillboardGui", L_181_[3]["Handle"])
				L_182_[2]["Name"] = "NameEsp" .. Number
				L_182_[2]["ExtentsOffset"] = Vector3["new"](0, 1, 0)
				L_182_[2]["Size"] = UDim2["new"](1, 200, 1, 30)
				L_182_[2]["Adornee"] = L_181_[3]["Handle"]
				L_182_[2]["AlwaysOnTop"] = true
				L_182_[1] = Instance["new"]("TextLabel", L_182_[2])
				L_182_[1]["Font"] = Enum["Font"]["GothamSemibold"]
				L_182_[1]["FontSize"] = "Size14"
				L_182_[1]["TextWrapped"] = true
				L_182_[1]["Size"] = UDim2["new"](1, 0, 1, 0)
				L_182_[1]["TextYAlignment"] = "Top"
				L_182_[1][L_3_[168]({
					"BackgroundTransparen",
					"cy"
				})] = 1
				L_182_[1][L_3_[168]({
					"TextStrokeTransparen";
					"cy"
				})] = .5
				L_182_[1]["TextColor3"] = Color3["fromRGB"](255, 0, 0)
				L_182_[1]["Text"] = L_181_[3]["Name"] .. (" 
" .. (L_3_[100](((game:GetService("Players"))["LocalPlayer"]["Character"]["Head"]["Position"] - L_181_[3]["Handle"]["Position"])["Magnitude"] / 3) .. " Distance"))
			end
		end
	end
	for L_183_forvar0, L_184_forvar1 in pairs(game["Workspace"]["PineappleSpawner"]:GetChildren()) do
		local L_185_ = {}
		L_185_[1], L_185_[2] = L_183_forvar0, L_184_forvar1
		if L_185_[2]:IsA("Tool") then
			if RealFruitESP then
				if L_185_[2]["Handle"]:FindFirstChild("NameEsp" .. Number) then
					L_185_[2]["Handle"]["NameEsp" .. Number]["TextLabel"]["Text"] = L_185_[2]["Name"] .. (" " .. (L_3_[100](((game:GetService("Players"))["LocalPlayer"]["Character"]["Head"]["Position"] - L_185_[2]["Handle"]["Position"])["Magnitude"] / 3) .. " Distance"))
				else
					local L_186_ = {}
					L_186_[2] = Instance["new"]("BillboardGui", L_185_[2]["Handle"])
					L_186_[2]["Name"] = "NameEsp" .. Number
					L_186_[2]["ExtentsOffset"] = Vector3["new"](0, 1, 0)
					L_186_[2]["Size"] = UDim2["new"](1, 200, 1, 30)
					L_186_[2]["Adornee"] = L_185_[2]["Handle"]
					L_186_[2]["AlwaysOnTop"] = true
					L_186_[3] = Instance["new"]("TextLabel", L_186_[2])
					L_186_[3]["Font"] = Enum["Font"]["GothamSemibold"]
					L_186_[3]["FontSize"] = "Size14"
					L_186_[3]["TextWrapped"] = true
					L_186_[3]["Size"] = UDim2["new"](1, 0, 1, 0)
					L_186_[3]["TextYAlignment"] = "Top"
					L_186_[3][L_3_[168]({
						"BackgroundTransparen";
						"cy"
					})] = 1
					L_186_[3][L_3_[168]({
						"TextStrokeTransparen",
						"cy"
					})] = .5
					L_186_[3]["TextColor3"] = Color3["fromRGB"](255, 174, 0)
					L_186_[3]["Text"] = L_185_[2]["Name"] .. (" 
" .. (L_3_[100](((game:GetService("Players"))["LocalPlayer"]["Character"]["Head"]["Position"] - L_185_[2]["Handle"]["Position"])["Magnitude"] / 3) .. " Distance"))
				end
			elseif L_185_[2]["Handle"]:FindFirstChild("NameEsp" .. Number) then
				(L_185_[2]["Handle"]:FindFirstChild("NameEsp" .. Number)):Destroy()
			end
		end
	end
	for L_187_forvar0, L_188_forvar1 in pairs(game["Workspace"]["BananaSpawner"]:GetChildren()) do
		local L_189_ = {}
		L_189_[2], L_189_[3] = L_187_forvar0, L_188_forvar1
		if L_189_[3]:IsA("Tool") then
			if RealFruitESP then
				if not L_189_[3]["Handle"]:FindFirstChild("NameEsp" .. Number) then
					local L_190_ = {}
					L_190_[1] = Instance["new"]("BillboardGui", L_189_[3]["Handle"])
					L_190_[1]["Name"] = "NameEsp" .. Number
					L_190_[1]["ExtentsOffset"] = Vector3["new"](0, 1, 0)
					L_190_[1]["Size"] = UDim2["new"](1, 200, 1, 30)
					L_190_[1]["Adornee"] = L_189_[3]["Handle"]
					L_190_[1]["AlwaysOnTop"] = true
					L_190_[3] = Instance["new"]("TextLabel", L_190_[1])
					L_190_[3]["Font"] = Enum["Font"]["GothamSemibold"]
					L_190_[3]["FontSize"] = "Size14"
					L_190_[3]["TextWrapped"] = true
					L_190_[3]["Size"] = UDim2["new"](1, 0, 1, 0)
					L_190_[3]["TextYAlignment"] = "Top"
					L_190_[3][L_3_[168]({
						"BackgroundTransparen",
						"cy"
					})] = 1
					L_190_[3][L_3_[168]({
						"TextStrokeTransparen";
						"cy"
					})] = .5
					L_190_[3]["TextColor3"] = Color3["fromRGB"](251, 255, 0)
					L_190_[3]["Text"] = L_189_[3]["Name"] .. (" 
" .. (L_3_[100](((game:GetService("Players"))["LocalPlayer"]["Character"]["Head"]["Position"] - L_189_[3]["Handle"]["Position"])["Magnitude"] / 3) .. " Distance"))
				else
					L_189_[3]["Handle"]["NameEsp" .. Number]["TextLabel"]["Text"] = L_189_[3]["Name"] .. (" " .. (L_3_[100](((game:GetService("Players"))["LocalPlayer"]["Character"]["Head"]["Position"] - L_189_[3]["Handle"]["Position"])["Magnitude"] / 3) .. " Distance"))
				end
			elseif L_189_[3]["Handle"]:FindFirstChild("NameEsp" .. Number) then
				(L_189_[3]["Handle"]:FindFirstChild("NameEsp" .. Number)):Destroy()
			end
		end
	end
end
function UpdateIslandESP()
	for L_191_forvar0, L_192_forvar1 in pairs((game:GetService("Workspace"))["_WorldOrigin"]["Locations"]:GetChildren()) do
		local L_193_ = {}
		L_193_[1], L_193_[3] = L_191_forvar0, L_192_forvar1
		do
			local L_194_ = {}
			L_194_[2] = L_193_[3]
			pcall(function()
				if IslandESP then
					if L_194_[2]["Name"] ~= "Sea" then
						if not L_194_[2]:FindFirstChild("NameEsp") then
							local L_195_ = {}
							L_195_[2] = Instance["new"]("BillboardGui", L_194_[2])
							L_195_[2]["Name"] = "NameEsp"
							L_195_[2]["ExtentsOffset"] = Vector3["new"](0, 1, 0)
							L_195_[2]["Size"] = UDim2["new"](1, 200, 1, 30)
							L_195_[2]["Adornee"] = L_194_[2]
							L_195_[2]["AlwaysOnTop"] = true
							L_195_[1] = Instance["new"]("TextLabel", L_195_[2])
							L_195_[1]["Font"] = "GothamSemibold"
							L_195_[1]["FontSize"] = "Size14"
							L_195_[1]["TextWrapped"] = true
							L_195_[1]["Size"] = UDim2["new"](1, 0, 1, 0)
							L_195_[1]["TextYAlignment"] = "Top"
							L_195_[1][L_3_[168]({
								"BackgroundTransparen";
								"cy"
							})] = 1
							L_195_[1][L_3_[168]({
								"TextStrokeTransparen",
								"cy"
							})] = .5
							L_195_[1]["TextColor3"] = Color3["fromRGB"](8, 247, 255)
						else
							L_194_[2]["NameEsp"]["TextLabel"]["Text"] = L_194_[2]["Name"] .. ("   
" .. (L_3_[100](((game:GetService("Players"))["LocalPlayer"]["Character"]["Head"]["Position"] - L_194_[2]["Position"])["Magnitude"] / 3) .. " Distance"))
						end
					end
				elseif L_194_[2]:FindFirstChild("NameEsp") then
					(L_194_[2]:FindFirstChild("NameEsp")):Destroy()
				end
			end)
		end
	end
end
function isnil(L_196_arg0)
	local L_197_ = {}
	L_197_[2] = L_196_arg0
	L_197_[3] = nil
	if L_197_[2] ~= L_197_[3] then
		local L_198_ = {}
		L_198_[2] = false
	end
	return true
end
L_3_[209] = function(L_199_arg0)
	local L_200_ = {}
	L_200_[1] = L_199_arg0
	return math["floor"](tonumber(L_200_[1]) + .5)
end
Number = math["random"](1, 1000000)
function UpdatePlayerChams()
	for L_201_forvar0, L_202_forvar1 in pairs((game:GetService("Players")):GetChildren()) do
		local L_203_ = {}
		L_203_[2], L_203_[3] = L_201_forvar0, L_202_forvar1
		do
			local L_204_ = {}
			L_204_[1] = L_203_[3]
			pcall(function()
				if not isnil(L_204_[1]["Character"]) then
					if ESPPlayer then
						if not isnil(L_204_[1]["Character"]["Head"]) and not L_204_[1]["Character"]["Head"]:FindFirstChild("NameEsp" .. Number) then
							local L_205_ = {}
							L_205_[3] = Instance["new"]("BillboardGui", L_204_[1]["Character"]["Head"])
							L_205_[3]["Name"] = "NameEsp" .. Number
							L_205_[3]["ExtentsOffset"] = Vector3["new"](0, 1, 0)
							L_205_[3]["Size"] = UDim2["new"](1, 200, 1, 30)
							L_205_[3]["Adornee"] = L_204_[1]["Character"]["Head"]
							L_205_[3]["AlwaysOnTop"] = true
							L_205_[1] = Instance["new"]("TextLabel", L_205_[3])
							L_205_[1]["Font"] = Enum["Font"]["GothamSemibold"]
							L_205_[1]["FontSize"] = "Size14"
							L_205_[1]["TextWrapped"] = true
							L_205_[1]["Text"] = L_204_[1]["Name"] .. (" 
" .. (L_3_[209](((game:GetService("Players"))["LocalPlayer"]["Character"]["Head"]["Position"] - L_204_[1]["Character"]["Head"]["Position"])["Magnitude"] / 3) .. " Distance"))
							L_205_[1]["Size"] = UDim2["new"](1, 0, 1, 0)
							L_205_[1]["TextYAlignment"] = "Top"
							L_205_[1][L_3_[168]({
								"BackgroundTransparen";
								"cy"
							})] = 1
							L_205_[1][L_3_[168]({
								"TextStrokeTransparen";
								"cy"
							})] = .5
							if L_204_[1]["Team"] == game["Players"]["LocalPlayer"]["Team"] then
								L_205_[1]["TextColor3"] = Color3["new"](0, 255, 0)
							else
								L_205_[1]["TextColor3"] = Color3["new"](255, 0, 0)
							end
						else
							L_204_[1]["Character"]["Head"]["NameEsp" .. Number]["TextLabel"]["Text"] = L_204_[1]["Name"] .. (" | " .. (L_3_[209](((game:GetService("Players"))["LocalPlayer"]["Character"]["Head"]["Position"] - L_204_[1]["Character"]["Head"]["Position"])["Magnitude"] / 3) .. (" Distance
Health : " .. (L_3_[209]((L_204_[1]["Character"]["Humanoid"]["Health"] * 100) / L_204_[1]["Character"]["Humanoid"]["MaxHealth"]) .. "%"))))
						end
					elseif L_204_[1]["Character"]["Head"]:FindFirstChild("NameEsp" .. Number) then
						(L_204_[1]["Character"]["Head"]:FindFirstChild("NameEsp" .. Number)):Destroy()
					end
				end
			end)
		end
	end
end
function UpdateChestESP()
	for L_206_forvar0, L_207_forvar1 in pairs((game:GetService("CollectionService")):GetTagged("_ChestTagged")) do
		local L_208_ = {}
		L_208_[2], L_208_[1] = L_206_forvar0, L_207_forvar1
		do
			local L_209_ = {}
			L_209_[1] = L_208_[1]
			pcall(function()
				if _G["ChestESP"] then
					if not L_209_[1]:GetAttribute("IsDisabled") then
						if L_209_[1]:FindFirstChild("ChestEsp") then
							local L_210_ = {}
							L_210_[2] = L_3_[209](((game:GetService("Players"))["LocalPlayer"]["Character"]["Head"]["Position"] - (L_209_[1]:GetPivot())["Position"])["Magnitude"] / 3)
							L_209_[1]["ChestEsp"]["TextLabel"]["Text"] = "Chest
" .. (L_210_[2] .. " M")
						else
							local L_211_ = {}
							L_211_[1] = Instance["new"]("BillboardGui", L_209_[1])
							L_211_[1]["Name"] = "ChestEsp"
							L_211_[1]["ExtentsOffset"] = Vector3["new"](0, 1, 0)
							L_211_[1]["Size"] = UDim2["new"](1, 200, 1, 30)
							L_211_[1]["Adornee"] = L_209_[1]
							L_211_[1]["AlwaysOnTop"] = true
							L_211_[3] = Instance["new"]("TextLabel", L_211_[1])
							L_211_[3]["Font"] = "Code"
							L_211_[3]["FontSize"] = "Size14"
							L_211_[3]["TextWrapped"] = true
							L_211_[3]["Size"] = UDim2["new"](1, 0, 1, 0)
							L_211_[3]["TextYAlignment"] = "Top"
							L_211_[3][L_3_[168]({
								"BackgroundTransparen",
								"cy"
							})] = 1
							L_211_[3][L_3_[168]({
								"TextStrokeTransparen",
								"cy"
							})] = .5
							L_211_[3]["TextColor3"] = Color3["fromRGB"](255, 215, 0)
						end
					end
				elseif L_209_[1]:FindFirstChild("ChestEsp") then
					(L_209_[1]:FindFirstChild("ChestEsp")):Destroy()
				end
			end)
		end
	end
end
L_3_[209] = function(L_212_arg0)
	local L_213_ = {}
	L_213_[1] = L_212_arg0
	return math["floor"](L_213_[1] + .5)
end
function UpdateDevilChams()
	for L_214_forvar0, L_215_forvar1 in pairs(game["Workspace"]:GetChildren()) do
		local L_216_ = {}
		L_216_[2], L_216_[3] = L_214_forvar0, L_215_forvar1
		do
			local L_217_ = {}
			L_217_[2] = L_216_[3]
			pcall(function()
				if not DevilFruitESP then
					if L_217_[2]["Handle"]:FindFirstChild("NameEsp" .. Number) then
						(L_217_[2]["Handle"]:FindFirstChild("NameEsp" .. Number)):Destroy()
					end
				elseif string["find"](L_217_[2]["Name"], "Fruit") then
					if L_217_[2]["Handle"]:FindFirstChild("NameEsp" .. Number) then
						L_217_[2]["Handle"]["NameEsp" .. Number]["TextLabel"]["Text"] = L_217_[2]["Name"] .. ("   
" .. (L_3_[209](((game:GetService("Players"))["LocalPlayer"]["Character"]["Head"]["Position"] - L_217_[2]["Handle"]["Position"])["Magnitude"] / 3) .. " Distance"))
					else
						local L_218_ = {}
						L_218_[2] = Instance["new"]("BillboardGui", L_217_[2]["Handle"])
						L_218_[2]["Name"] = "NameEsp" .. Number
						L_218_[2]["ExtentsOffset"] = Vector3["new"](0, 1, 0)
						L_218_[2]["Size"] = UDim2["new"](1, 200, 1, 30)
						L_218_[2]["Adornee"] = L_217_[2]["Handle"]
						L_218_[2]["AlwaysOnTop"] = true
						L_218_[3] = Instance["new"]("TextLabel", L_218_[2])
						L_218_[3]["Font"] = Enum["Font"]["GothamSemibold"]
						L_218_[3]["FontSize"] = "Size14"
						L_218_[3]["TextWrapped"] = true
						L_218_[3]["Size"] = UDim2["new"](1, 0, 1, 0)
						L_218_[3]["TextYAlignment"] = "Top"
						L_218_[3][L_3_[168]({
							"BackgroundTransparen",
							"cy"
						})] = 1
						L_218_[3][L_3_[168]({
							"TextStrokeTransparen",
							"cy"
						})] = .5
						L_218_[3]["TextColor3"] = Color3["fromRGB"](255, 255, 255)
						L_218_[3]["Text"] = L_217_[2]["Name"] .. (" 
" .. (L_3_[209](((game:GetService("Players"))["LocalPlayer"]["Character"]["Head"]["Position"] - L_217_[2]["Handle"]["Position"])["Magnitude"] / 3) .. " Distance"))
					end
				end
			end)
		end
	end
end
function UpdateFlowerChams()
	for L_219_forvar0, L_220_forvar1 in pairs(game["Workspace"]:GetChildren()) do
		local L_221_ = {}
		L_221_[3], L_221_[2] = L_219_forvar0, L_220_forvar1
		do
			local L_222_ = {}
			L_222_[1] = L_221_[2]
			pcall(function()
				if L_222_[1]["Name"] == "Flower2" or L_222_[1]["Name"] == "Flower1" then
					if not FlowerESP then
						if L_222_[1]:FindFirstChild("NameEsp" .. Number) then
							(L_222_[1]:FindFirstChild("NameEsp" .. Number)):Destroy()
						end
					elseif L_222_[1]:FindFirstChild("NameEsp" .. Number) then
						L_222_[1]["NameEsp" .. Number]["TextLabel"]["Text"] = L_222_[1]["Name"] .. ("   
" .. (L_3_[209](((game:GetService("Players"))["LocalPlayer"]["Character"]["Head"]["Position"] - L_222_[1]["Position"])["Magnitude"] / 3) .. " Distance"))
					else
						local L_223_ = {}
						L_223_[1] = Instance["new"]("BillboardGui", L_222_[1])
						L_223_[1]["Name"] = "NameEsp" .. Number
						L_223_[1]["ExtentsOffset"] = Vector3["new"](0, 1, 0)
						L_223_[1]["Size"] = UDim2["new"](1, 200, 1, 30)
						L_223_[1]["Adornee"] = L_222_[1]
						L_223_[1]["AlwaysOnTop"] = true
						L_223_[2] = Instance["new"]("TextLabel", L_223_[1])
						L_223_[2]["Font"] = Enum["Font"]["GothamSemibold"]
						L_223_[2]["FontSize"] = "Size14"
						L_223_[2]["TextWrapped"] = true
						L_223_[2]["Size"] = UDim2["new"](1, 0, 1, 0)
						L_223_[2]["TextYAlignment"] = "Top"
						L_223_[2][L_3_[168]({
							"BackgroundTransparen",
							"cy"
						})] = 1
						L_223_[2][L_3_[168]({
							"TextStrokeTransparen",
							"cy"
						})] = .5
						L_223_[2]["TextColor3"] = Color3["fromRGB"](255, 0, 0)
						if L_222_[1]["Name"] == "Flower1" then
							L_223_[2]["Text"] = "Blue Flower" .. (" 
" .. (L_3_[209](((game:GetService("Players"))["LocalPlayer"]["Character"]["Head"]["Position"] - L_222_[1]["Position"])["Magnitude"] / 3) .. " Distance"))
							L_223_[2]["TextColor3"] = Color3["fromRGB"](0, 0, 255)
						end
						if L_222_[1]["Name"] == "Flower2" then
							L_223_[2]["Text"] = "Red Flower" .. (" 
" .. (L_3_[209](((game:GetService("Players"))["LocalPlayer"]["Character"]["Head"]["Position"] - L_222_[1]["Position"])["Magnitude"] / 3) .. " Distance"))
							L_223_[2]["TextColor3"] = Color3["fromRGB"](255, 0, 0)
						end
					end
				end
			end)
		end
	end
end
function UpdateRealFruitChams()
	for L_224_forvar0, L_225_forvar1 in pairs(game["Workspace"]["AppleSpawner"]:GetChildren()) do
		local L_226_ = {}
		L_226_[2], L_226_[3] = L_224_forvar0, L_225_forvar1
		if L_226_[3]:IsA("Tool") then
			if not RealFruitESP then
				if L_226_[3]["Handle"]:FindFirstChild("NameEsp" .. Number) then
					(L_226_[3]["Handle"]:FindFirstChild("NameEsp" .. Number)):Destroy()
				end
			elseif L_226_[3]["Handle"]:FindFirstChild("NameEsp" .. Number) then
				L_226_[3]["Handle"]["NameEsp" .. Number]["TextLabel"]["Text"] = L_226_[3]["Name"] .. (" " .. (L_3_[209](((game:GetService("Players"))["LocalPlayer"]["Character"]["Head"]["Position"] - L_226_[3]["Handle"]["Position"])["Magnitude"] / 3) .. " Distance"))
			else
				local L_227_ = {}
				L_227_[2] = Instance["new"]("BillboardGui", L_226_[3]["Handle"])
				L_227_[2]["Name"] = "NameEsp" .. Number
				L_227_[2]["ExtentsOffset"] = Vector3["new"](0, 1, 0)
				L_227_[2]["Size"] = UDim2["new"](1, 200, 1, 30)
				L_227_[2]["Adornee"] = L_226_[3]["Handle"]
				L_227_[2]["AlwaysOnTop"] = true
				L_227_[3] = Instance["new"]("TextLabel", L_227_[2])
				L_227_[3]["Font"] = Enum["Font"]["GothamSemibold"]
				L_227_[3]["FontSize"] = "Size14"
				L_227_[3]["TextWrapped"] = true
				L_227_[3]["Size"] = UDim2["new"](1, 0, 1, 0)
				L_227_[3]["TextYAlignment"] = "Top"
				L_227_[3][L_3_[168]({
					"BackgroundTransparen",
					"cy"
				})] = 1
				L_227_[3][L_3_[168]({
					"TextStrokeTransparen";
					"cy"
				})] = .5
				L_227_[3]["TextColor3"] = Color3["fromRGB"](255, 0, 0)
				L_227_[3]["Text"] = L_226_[3]["Name"] .. (" 
" .. (L_3_[209](((game:GetService("Players"))["LocalPlayer"]["Character"]["Head"]["Position"] - L_226_[3]["Handle"]["Position"])["Magnitude"] / 3) .. " Distance"))
			end
		end
	end
	for L_228_forvar0, L_229_forvar1 in pairs(game["Workspace"]["PineappleSpawner"]:GetChildren()) do
		local L_230_ = {}
		L_230_[2], L_230_[3] = L_228_forvar0, L_229_forvar1
		if L_230_[3]:IsA("Tool") then
			if RealFruitESP then
				if not L_230_[3]["Handle"]:FindFirstChild("NameEsp" .. Number) then
					local L_231_ = {}
					L_231_[3] = Instance["new"]("BillboardGui", L_230_[3]["Handle"])
					L_231_[3]["Name"] = "NameEsp" .. Number
					L_231_[3]["ExtentsOffset"] = Vector3["new"](0, 1, 0)
					L_231_[3]["Size"] = UDim2["new"](1, 200, 1, 30)
					L_231_[3]["Adornee"] = L_230_[3]["Handle"]
					L_231_[3]["AlwaysOnTop"] = true
					L_231_[2] = Instance["new"]("TextLabel", L_231_[3])
					L_231_[2]["Font"] = Enum["Font"]["GothamSemibold"]
					L_231_[2]["FontSize"] = "Size14"
					L_231_[2]["TextWrapped"] = true
					L_231_[2]["Size"] = UDim2["new"](1, 0, 1, 0)
					L_231_[2]["TextYAlignment"] = "Top"
					L_231_[2][L_3_[168]({
						"BackgroundTransparen";
						"cy"
					})] = 1
					L_231_[2][L_3_[168]({
						"TextStrokeTransparen";
						"cy"
					})] = .5
					L_231_[2]["TextColor3"] = Color3["fromRGB"](255, 174, 0)
					L_231_[2]["Text"] = L_230_[3]["Name"] .. (" 
" .. (L_3_[209](((game:GetService("Players"))["LocalPlayer"]["Character"]["Head"]["Position"] - L_230_[3]["Handle"]["Position"])["Magnitude"] / 3) .. " Distance"))
				else
					L_230_[3]["Handle"]["NameEsp" .. Number]["TextLabel"]["Text"] = L_230_[3]["Name"] .. (" " .. (L_3_[209](((game:GetService("Players"))["LocalPlayer"]["Character"]["Head"]["Position"] - L_230_[3]["Handle"]["Position"])["Magnitude"] / 3) .. " Distance"))
				end
			elseif L_230_[3]["Handle"]:FindFirstChild("NameEsp" .. Number) then
				(L_230_[3]["Handle"]:FindFirstChild("NameEsp" .. Number)):Destroy()
			end
		end
	end
	for L_232_forvar0, L_233_forvar1 in pairs(game["Workspace"]["BananaSpawner"]:GetChildren()) do
		local L_234_ = {}
		L_234_[2], L_234_[1] = L_232_forvar0, L_233_forvar1
		if L_234_[1]:IsA("Tool") then
			if not RealFruitESP then
				if L_234_[1]["Handle"]:FindFirstChild("NameEsp" .. Number) then
					(L_234_[1]["Handle"]:FindFirstChild("NameEsp" .. Number)):Destroy()
				end
			elseif not L_234_[1]["Handle"]:FindFirstChild("NameEsp" .. Number) then
				local L_235_ = {}
				L_235_[3] = Instance["new"]("BillboardGui", L_234_[1]["Handle"])
				L_235_[3]["Name"] = "NameEsp" .. Number
				L_235_[3]["ExtentsOffset"] = Vector3["new"](0, 1, 0)
				L_235_[3]["Size"] = UDim2["new"](1, 200, 1, 30)
				L_235_[3]["Adornee"] = L_234_[1]["Handle"]
				L_235_[3]["AlwaysOnTop"] = true
				L_235_[2] = Instance["new"]("TextLabel", L_235_[3])
				L_235_[2]["Font"] = Enum["Font"]["GothamSemibold"]
				L_235_[2]["FontSize"] = "Size14"
				L_235_[2]["TextWrapped"] = true
				L_235_[2]["Size"] = UDim2["new"](1, 0, 1, 0)
				L_235_[2]["TextYAlignment"] = "Top"
				L_235_[2][L_3_[168]({
					"BackgroundTransparen",
					"cy"
				})] = 1
				L_235_[2][L_3_[168]({
					"TextStrokeTransparen";
					"cy"
				})] = .5
				L_235_[2]["TextColor3"] = Color3["fromRGB"](251, 255, 0)
				L_235_[2]["Text"] = L_234_[1]["Name"] .. (" 
" .. (L_3_[209](((game:GetService("Players"))["LocalPlayer"]["Character"]["Head"]["Position"] - L_234_[1]["Handle"]["Position"])["Magnitude"] / 3) .. " Distance"))
			else
				L_234_[1]["Handle"]["NameEsp" .. Number]["TextLabel"]["Text"] = L_234_[1]["Name"] .. (" " .. (L_3_[209](((game:GetService("Players"))["LocalPlayer"]["Character"]["Head"]["Position"] - L_234_[1]["Handle"]["Position"])["Magnitude"] / 3) .. " Distance"))
			end
		end
	end
end
function UpdateIslandESP()
	for L_236_forvar0, L_237_forvar1 in pairs((game:GetService("Workspace"))["_WorldOrigin"]["Locations"]:GetChildren()) do
		local L_238_ = {}
		L_238_[1], L_238_[2] = L_236_forvar0, L_237_forvar1
		do
			local L_239_ = {}
			L_239_[2] = L_238_[2]
			pcall(function()
				if not IslandESP then
					if L_239_[2]:FindFirstChild("NameEsp") then
						(L_239_[2]:FindFirstChild("NameEsp")):Destroy()
					end
				elseif L_239_[2]["Name"] ~= "Sea" then
					if L_239_[2]:FindFirstChild("NameEsp") then
						L_239_[2]["NameEsp"]["TextLabel"]["Text"] = L_239_[2]["Name"] .. ("   
" .. (L_3_[209](((game:GetService("Players"))["LocalPlayer"]["Character"]["Head"]["Position"] - L_239_[2]["Position"])["Magnitude"] / 3) .. " Distance"))
					else
						local L_240_ = {}
						L_240_[1] = Instance["new"]("BillboardGui", L_239_[2])
						L_240_[1]["Name"] = "NameEsp"
						L_240_[1]["ExtentsOffset"] = Vector3["new"](0, 1, 0)
						L_240_[1]["Size"] = UDim2["new"](1, 200, 1, 30)
						L_240_[1]["Adornee"] = L_239_[2]
						L_240_[1]["AlwaysOnTop"] = true
						L_240_[2] = Instance["new"]("TextLabel", L_240_[1])
						L_240_[2]["Font"] = "GothamSemibold"
						L_240_[2]["FontSize"] = "Size14"
						L_240_[2]["TextWrapped"] = true
						L_240_[2]["Size"] = UDim2["new"](1, 0, 1, 0)
						L_240_[2]["TextYAlignment"] = "Top"
						L_240_[2][L_3_[168]({
							"BackgroundTransparen";
							"cy"
						})] = 1
						L_240_[2][L_3_[168]({
							"TextStrokeTransparen",
							"cy"
						})] = .5
						L_240_[2]["TextColor3"] = Color3["fromRGB"](8, 247, 255)
					end
				end
			end)
		end
	end
end
function isnil(L_241_arg0)
	local L_242_ = {}
	L_242_[3] = L_241_arg0
	L_242_[2] = nil
	if L_242_[3] ~= L_242_[2] then
		local L_243_ = {}
		L_243_[2] = false
	end
	return true
end
L_3_[54] = function(L_244_arg0)
	local L_245_ = {}
	L_245_[1] = L_244_arg0
	return math["floor"](tonumber(L_245_[1]) + .5)
end
Number = math["random"](1, 1000000)
function UpdatePlayerChams()
	for L_246_forvar0, L_247_forvar1 in pairs((game:GetService("Players")):GetChildren()) do
		local L_248_ = {}
		L_248_[1], L_248_[2] = L_246_forvar0, L_247_forvar1
		do
			local L_249_ = {}
			L_249_[1] = L_248_[2]
			pcall(function()
				if not isnil(L_249_[1]["Character"]) then
					if ESPPlayer then
						if isnil(L_249_[1]["Character"]["Head"]) or L_249_[1]["Character"]["Head"]:FindFirstChild("NameEsp" .. Number) then
							L_249_[1]["Character"]["Head"]["NameEsp" .. Number]["TextLabel"]["Text"] = L_249_[1]["Name"] .. (" | " .. (L_3_[54](((game:GetService("Players"))["LocalPlayer"]["Character"]["Head"]["Position"] - L_249_[1]["Character"]["Head"]["Position"])["Magnitude"] / 3) .. (" Distance
Health : " .. (L_3_[54]((L_249_[1]["Character"]["Humanoid"]["Health"] * 100) / L_249_[1]["Character"]["Humanoid"]["MaxHealth"]) .. "%"))))
						else
							local L_250_ = {}
							L_250_[3] = Instance["new"]("BillboardGui", L_249_[1]["Character"]["Head"])
							L_250_[3]["Name"] = "NameEsp" .. Number
							L_250_[3]["ExtentsOffset"] = Vector3["new"](0, 1, 0)
							L_250_[3]["Size"] = UDim2["new"](1, 200, 1, 30)
							L_250_[3]["Adornee"] = L_249_[1]["Character"]["Head"]
							L_250_[3]["AlwaysOnTop"] = true
							L_250_[2] = Instance["new"]("TextLabel", L_250_[3])
							L_250_[2]["Font"] = Enum["Font"]["GothamSemibold"]
							L_250_[2]["FontSize"] = "Size14"
							L_250_[2]["TextWrapped"] = true
							L_250_[2]["Text"] = L_249_[1]["Name"] .. (" 
" .. (L_3_[54](((game:GetService("Players"))["LocalPlayer"]["Character"]["Head"]["Position"] - L_249_[1]["Character"]["Head"]["Position"])["Magnitude"] / 3) .. " Distance"))
							L_250_[2]["Size"] = UDim2["new"](1, 0, 1, 0)
							L_250_[2]["TextYAlignment"] = "Top"
							L_250_[2][L_3_[168]({
								"BackgroundTransparen";
								"cy"
							})] = 1
							L_250_[2][L_3_[168]({
								"TextStrokeTransparen";
								"cy"
							})] = .5
							if L_249_[1]["Team"] ~= game["Players"]["LocalPlayer"]["Team"] then
								L_250_[2]["TextColor3"] = Color3["new"](255, 0, 0)
							else
								L_250_[2]["TextColor3"] = Color3["new"](0, 255, 0)
							end
						end
					elseif L_249_[1]["Character"]["Head"]:FindFirstChild("NameEsp" .. Number) then
						(L_249_[1]["Character"]["Head"]:FindFirstChild("NameEsp" .. Number)):Destroy()
					end
				end
			end)
		end
	end
end
function UpdateChestESP()
	for L_251_forvar0, L_252_forvar1 in pairs((game:GetService("CollectionService")):GetTagged("_ChestTagged")) do
		local L_253_ = {}
		L_253_[3], L_253_[2] = L_251_forvar0, L_252_forvar1
		do
			local L_254_ = {}
			L_254_[1] = L_253_[2]
			pcall(function()
				if _G["ChestESP"] then
					if not L_254_[1]:GetAttribute("IsDisabled") then
						if L_254_[1]:FindFirstChild("ChestEsp") then
							local L_255_ = {}
							L_255_[1] = L_3_[54](((game:GetService("Players"))["LocalPlayer"]["Character"]["Head"]["Position"] - (L_254_[1]:GetPivot())["Position"])["Magnitude"] / 3)
							L_254_[1]["ChestEsp"]["TextLabel"]["Text"] = "Chest
" .. (L_255_[1] .. " M")
						else
							local L_256_ = {}
							L_256_[3] = Instance["new"]("BillboardGui", L_254_[1])
							L_256_[3]["Name"] = "ChestEsp"
							L_256_[3]["ExtentsOffset"] = Vector3["new"](0, 1, 0)
							L_256_[3]["Size"] = UDim2["new"](1, 200, 1, 30)
							L_256_[3]["Adornee"] = L_254_[1]
							L_256_[3]["AlwaysOnTop"] = true
							L_256_[2] = Instance["new"]("TextLabel", L_256_[3])
							L_256_[2]["Font"] = "Code"
							L_256_[2]["FontSize"] = "Size14"
							L_256_[2]["TextWrapped"] = true
							L_256_[2]["Size"] = UDim2["new"](1, 0, 1, 0)
							L_256_[2]["TextYAlignment"] = "Top"
							L_256_[2][L_3_[168]({
								"BackgroundTransparen",
								"cy"
							})] = 1
							L_256_[2][L_3_[168]({
								"TextStrokeTransparen";
								"cy"
							})] = .5
							L_256_[2]["TextColor3"] = Color3["fromRGB"](255, 215, 0)
						end
					end
				elseif L_254_[1]:FindFirstChild("ChestEsp") then
					(L_254_[1]:FindFirstChild("ChestEsp")):Destroy()
				end
			end)
		end
	end
end
L_3_[54] = function(L_257_arg0)
	local L_258_ = {}
	L_258_[2] = L_257_arg0
	return math["floor"](L_258_[2] + .5)
end
function UpdateDevilChams()
	for L_259_forvar0, L_260_forvar1 in pairs(game["Workspace"]:GetChildren()) do
		local L_261_ = {}
		L_261_[2], L_261_[3] = L_259_forvar0, L_260_forvar1
		do
			local L_262_ = {}
			L_262_[2] = L_261_[3]
			pcall(function()
				if not DevilFruitESP then
					if L_262_[2]["Handle"]:FindFirstChild("NameEsp" .. Number) then
						(L_262_[2]["Handle"]:FindFirstChild("NameEsp" .. Number)):Destroy()
					end
				elseif string["find"](L_262_[2]["Name"], "Fruit") then
					if L_262_[2]["Handle"]:FindFirstChild("NameEsp" .. Number) then
						L_262_[2]["Handle"]["NameEsp" .. Number]["TextLabel"]["Text"] = L_262_[2]["Name"] .. ("   
